{"jax_config": {"num_players": 2, "hand_length": 5, "num_digits": 5}, "policy_network_layers": [64, 64], "params_target": {"Dense_0": {"kernel": [[0.03274930051623767, -0.0426334996192719, 0.0986250535916546, -0.029805739119823996, 0.09466617163167843, -0.023284504278596713, -0.03081234229874867, -0.05501862644984298, 0.12227538520144582, 0.0643456032025789, 0.092341415193638, 0.0623227228371904, 0.03849105950303172, -0.03638275494314418, -0.10123548712789703, 0.12446242597538937, -0.041420862416687354, 0.0846209493501262, -0.04006386736330303, 0.035776104952602805, 0.07755291954179452, 0.04279189808173417, -0.002019908436858786, 0.0605993766212731, -0.09437502956800045, 0.12633936794928285, -0.13982824910791977, -0.1056952157650866, 0.01126503769812684, 0.0322584015922065, -0.09574225306608766, -0.12590685823762468, 0.13659321034863425, -0.0774163799053133, 0.007132903018192527, -0.08588316108361033, -0.14646291181251272, -0.10326016239698202, -0.08861572485628896, -0.12012329084322868, -0.0408633988242062, 0.13278106912286264, 0.037068149612032, -0.007296821881257132, 0.12705221200293454, -0.1331751784129786, 0.06914676058265645, 0.09096678759504126, -0.03513112354152377, 0.045050068945993005, -0.07539212733566401, 0.003284683001072458, 0.087900638307319, -0.028701297366673914, 0.05507806232754284, 0.04753851087248723, 0.14094353069716326, -0.03722457669605489, 0.019771426879308468, 0.10411793928528629, -0.12487010566498698, 0.06035067141095346, -0.12415996920103997, -0.08815732252631446], [0.031321076643481466, 0.13232618309692468, -0.03677585355212623, -0.07717656430479553, 0.053823508452838065, 0.01533317198836709, 0.007468750603144281, 0.04312330238401027, -0.12813580668800154, 0.03724151762966363, -0.09895178478374006, 0.13702319773659283, -0.10074320910882398, 0.14622667719426274, -0.1437226735159169, -0.07994156879538485, -0.07546888244294622, 0.04079272914440324, -0.14724161487999404, 0.0941403298502057, -0.0795642347265386, 0.027586173561613886, -0.07791278954617038, -0.02300805259033764, -0.12005932931293127, -0.034760772376375246, 0.1018034258490993, -0.058618039831409396, -0.06810747194665354, 0.08119085947818194, 0.06464451042667718, -0.0544890076589363, -0.01193620713664742, 0.10731303756377453, 0.06857618680720301, 0.10385286836683494, 0.10396217682550529, -0.017896659224391764, -0.005365949680880722, 0.10117436335493796, -0.024967650388935517, 0.007694834310554288, -0.08625490170685568, -0.04926010600914206, 0.08800509241647664, 0.14420899603172732, -0.09673218657288116, 0.008346473578891206, -0.12471482247705153, -0.13074334781631142, -0.1433948477491867, 0.04598668987686741, -0.10357738338340071, 0.07265312016581954, 0.1306510250873379, -0.003566064251098011, 0.0546769645794474, -0.03904413431977209, -0.10204265750766946, -0.09436190602268832, -0.005385101145968463, 0.03768170981581731, 0.13483285547785212, -0.02118943172709975], [-0.10237380865923296, 0.07709116751465267, -0.14473373111950813, -0.1385235054024665, -0.08482448128597041, 0.11195318789043546, 0.00815190573421648, 0.018313829043969027, 0.09421208175272058, -0.022251077384503742, -0.005716418059430489, -0.11218591496928018, -0.11154601978497455, -0.04516307606468975, 0.06993115871839431, 0.05058005329164844, 0.014964724750938435, -0.034623169587936056, -0.01430826499254445, 0.13516677182001707, -0.09992596083150485, -0.09097502060079637, 0.0976738612439158, -0.05968554312694957, 0.02150646150015706, 0.08956286076667036, -0.06833983809548612, -0.01337887044756017, 0.09403603455008974, 0.09504923731306983, 0.0059914809589598494, -0.06397996023928701, 0.051885920972584265, -0.11735926234278501, -0.0512884147185851, -0.038807147987497945, -0.009078649976370451, 0.07682511025755134, -0.019188209750862356, -0.03122651415790191, -0.018266178244734393, 0.003426134767983563, -0.08029979576600119, 0.13383595933136677, 0.12433791600036886, -0.0038218022666492435, -0.04967950728360991, 0.03497702041534975, 0.07352480811664361, 0.13854258921306112, -0.1411291829839552, 0.026366572567955993, -0.07868082998856013, 0.020896098747655995, 0.13314048592045769, -0.01170818106055349, -0.10107375746502961, 0.07094209990889566, -0.0701149759598438, 0.04542128117681074, -0.14072876120043762, 0.029639820330080585, 0.015294093415788829, -0.08411432460419051], [0.10988263171126023, -0.005067302062507384, 0.14420817008819647, 0.04315388741563944, 0.11810840593129979, -0.11752541611536105, -0.018634495332046752, -0.13782280144493758, 0.06465227429820852, 0.0016466187554946277, -0.12951292462766378, -0.07219187344865959, 0.10576149785368505, 0.1136546732854039, -0.05539377231072945, -0.05370753025900603, 0.005441621243570005, 0.07161463868168319, -0.05500765848064962, 0.04395417284011732, -0.018159543384142912, 0.12651320577213837, 0.14646453344018706, 0.12432424103194462, -0.04924343652707101, -0.12419973605708089, -0.14431713801049645, -0.10247202427877133, -0.04453352069814878, 0.07180821063142603, 0.11621701652367761, 0.03831475352489183, 0.07646183709588295, 0.14524706308628232, -0.13272859250483818, 0.1099904600873054, 0.022383006931235766, -0.040368900334670166, 0.026168582884807307, -0.1369881173544045, 0.012371932973975569, -0.08672322436972911, 0.04516406704779957, -0.04073247658007248, 0.00908941737026242, 0.040896112935136536, 0.00862409380782364, -0.01962918242630826, -0.12141230110918615, 0.09230103003513901, -0.08154284143115453, 0.11588568164066837, -0.13510943063072273, 0.1256460133259778, 0.004195409368930425, 0.12577023390703784, -0.009271260704692696, -0.05183886028288477, 0.006377499881454085, 0.04467383151137344, 0.0697381004603842, 0.10954871612230732, -0.07045622803505618, -0.09670472331516744], [0.10308373235491469, -0.018495252288645347, -0.006021443284771083, -0.04888729722246474, -0.12479311285776312, -0.146972105160839, -0.03743829400879485, 0.13531973044928725, 0.06686206025055264, 0.038829359474531394, 0.09103541922683098, 0.10194303529350784, -0.08045926404050334, -0.06787765323394022, -0.037824293265304315, -0.14419546603410296, -0.04791391657042855, -0.06748665036836081, -0.03787472874458872, 0.020022379873183366, 0.06469014019198926, -0.03050987978251367, 0.04415175439284269, -0.022552103413613994, -0.12947556444572175, 0.025990907770924554, -0.09668495971327706, -0.05095905114435939, 0.09113805072039907, -0.13871712118336, -0.026825667923764215, -0.004862363022796856, 0.08073316079591303, 0.028089689621525638, 0.024040978731937196, 0.03461090335299288, 0.011676070971681773, -0.11140307213210576, -0.10229504975770365, -0.03388730460805299, -0.004446142326031355, 0.0051743863997582296, 0.04376446713564075, -0.025846465248829928, 0.02109555849019229, 0.09076288502257393, 0.003238237293757412, -0.08790062063758466, 0.07327679437662027, -0.06691910646994778, -0.08331860954887467, 0.12773601124368966, -0.13136333251334958, 0.12320103541120098, -0.09884351063247412, 0.1349028463869405, 0.026424289132798873, -0.11575863154380787, -0.060450974858690595, 0.054414615292383534, -0.07683778858094632, 0.07790470088407217, -0.04784678577860914, -0.026125353592684045], [0.07772575146183075, -0.12427620145503435, 0.02240059910181097, -0.13128260363145608, -0.13266664082372034, -0.10087355432537154, 0.02747437253774554, 0.00624089322223223, -0.09785281668475318, -0.020928227635392233, -0.006440314742325232, -0.026212904119871913, 0.08444432929122339, -0.05298633658952434, 0.12246058014213757, -0.11106699147646905, 0.08430538040511909, 0.0673603774264053, -0.10234845795762815, -0.10974964513043199, 0.09275877170053351, 0.10413622639388709, -0.10760111590768134, 0.07058313307219075, 0.13207818227451307, -0.0459600195614539, -0.013579377274705956, 0.06090482043901577, 0.13650586206121534, -0.056657157161592836, -0.0548379060141896, -0.04109424386400211, -0.0648210330501299, -0.13525349319428095, -0.01787089666714564, 0.04243924747743971, 0.12711622450827387, -0.08864116747301229, -0.017976242641674967, -0.051951663457636646, -0.11520361300923122, 0.05401897348442705, 0.11544807527519485, -0.058329219074212554, -0.10601977537117252, 0.0019824690376183396, 0.11173258377215994, 0.050973790898512866, 0.06854260028744105, 0.0924028205770411, -0.08600811558002674, 0.1130255455170095, 0.016740232315014453, -0.10598625529341611, 0.013789134156914684, -0.0402294751003809, 0.02400377983058849, -0.14039514139853715, 0.09078841205766083, 0.14104787613680841, -0.04874537695426433, 0.03192975199921058, 0.12176812863927422, -0.09952005949718717], [-0.11705428429798459, 0.016229802985138042, 0.01108456444417355, -0.08468114601643434, 0.13753489300441912, 0.050732834576755176, 0.014758112415140023, -0.025925712215437546, -0.12393941874612333, 0.12318453313619998, 0.10817377392212751, -0.11867420045785089, -0.045549664544408924, -0.045385490737126555, 0.10219148495362557, 0.1217567743369013, 0.1295381552722919, 0.004015941594565586, -0.015279931409804937, -0.12944690904607692, 0.10983218692410851, 0.0015269897476522243, 0.1290302290491474, -0.060907414341628954, 0.041956354699698495, 0.13224944600938743, -0.023409665679756955, -0.1277508595423214, -0.018494509686952987, 0.07908384055205761, 0.0033422058836865554, -0.13465617139101882, 0.09088876939306967, 0.05457769786211045, -0.04228930797974964, -0.04884514825621039, -0.0632640713073296, 0.13972905042592587, 0.034120459638580625, -0.08978181373215174, -0.021770994795410142, -0.08169723948149014, -0.01287565747939276, 0.040283195751223494, 0.06681108201509947, 0.08724975058744627, 0.1264600913704116, 0.1294046899300908, -0.08519228919718547, -0.08119471946482146, -0.04166826331572146, -0.005498429856801101, -0.029461381695590302, 0.019980494258121373, 0.031432398476812645, 0.09464121759057564, 0.014716592754283608, 0.03156137284038146, -0.12462981751556478, 0.0580042307525199, 0.02400020618602519, 0.07793069971223202, -0.1446764976422257, -0.039459847058500405], [-0.03403880865448429, -0.10029632476125733, -0.022210747750477433, 0.1061369215535497, 0.035277576910357794, 0.028431489224614553, 0.02096107328906799, -0.08819801310046402, -0.08083562929454141, -0.11869529968584971, -0.06453479395115039, 0.05995576447066686, -0.10388890622313587, -0.046588235377797355, 0.04119616525930095, -0.1461173268402655, -0.0826123721187815, 0.137351883660909, -0.0151941015265461, -0.08008473700019719, -0.1325258861832951, -0.09460191359356512, 0.028635798239791427, 0.017662203010207406, -0.027824286189119335, -0.09251488693520246, -0.13553514973472633, -0.05092198366804941, -0.08342392036410336, 0.03056929906490896, -0.05244801773206703, -0.04994189157786731, -0.021975462692960662, 0.08825091031897567, -0.05863402862539885, -0.020308619489019186, -0.12686061709368268, 0.04551521979229001, -0.14650646924291771, -0.032364076609497194, 0.13204077134648795, 0.09209388021279552, -0.05874042976875396, 0.0704364891364273, 0.11640423719852899, -0.1052906741081735, -0.1336416907606032, -0.00422513136239161, -0.06411673642206794, 0.10754647534984024, 0.13450654034548443, -0.0707087699624085, -0.12560698427561195, 0.08852007841781817, 0.08112908220285345, 0.14649087338459654, 0.134996257803083, 0.14561002295013242, 0.0783306173920244, 0.12151323445654794, 0.058898564613813126, 0.05896144950902596, -0.14605816634832028, -0.09159763078896066], [0.09248378069180715, -0.002319976102712923, 0.1037033906623398, 0.08350769835247715, -0.028842419732047528, 0.019139240350771386, 0.13491658943579832, 0.023001257140486092, -0.07418139621787959, -0.03578574216533731, 0.11050766831869896, -0.03894048122483745, 0.06978461821303111, 0.12977764131802144, -0.06421794243962112, -0.04817119342996937, -0.016635149361026252, -0.12546953736766894, 0.03548788690074406, -0.14758696704411464, -0.03565950188549112, -0.05257238380926338, 0.09325428037119252, -0.10733745696499782, -0.14427978045263207, 0.07491074584710944, -0.12309539249020926, 0.0721814649845508, -0.08863922737649829, -0.006581658215301683, 0.01147624246237769, 0.009152347024610097, -0.012735384560766005, -0.02775188014140416, -0.09848749623125928, -0.007050614202127686, -0.04977102994476826, 0.07065678588063709, 0.09275318886109005, 0.008564379759271823, 0.023883390702297863, -0.09350423419819237, 0.14353587143362645, 0.047122654466013464, -0.08641235013917625, -0.09582966155091562, 0.11428842156622981, -0.13713238141110487, -0.08320230758744815, -0.10266533877880937, -0.1216093526961615, -0.11767602621365225, 0.07844171244966269, 0.0792062080439484, -0.0905779993006422, 0.08278781571436769, 0.09968893776829013, 0.05382557403859772, 0.09833232502395903, -0.017060144404858646, -0.061762378633480705, -0.08091143766728781, 0.09358302817362932, -0.1035365573481575], [0.10236941905861063, -0.11943080634318257, 0.0505097214029733, 0.0037043554616783547, 0.004158495583539035, -0.13344221731980513, -0.0790073039179165, -0.00662623591085687, 0.05352486314740615, -0.08933799918676022, 0.13086928788499125, 0.004867697213349731, -0.08588805493178006, 0.03473130163853533, 0.13249927999184968, -0.007807672524345971, 0.1456838493532293, -0.0355651872123824, -0.13921754036346887, -0.1258501229639736, 0.005927815572525946, -0.031841226556889354, -0.08149268943215233, -0.12489225577332877, 0.12904621946640427, -0.13362956112512736, -0.04787207625624597, 0.1188208588881201, 0.05369705485067108, 0.13162268362668744, -0.05109289424767567, 0.09049561976549311, 0.036567999826637804, -0.13768592479048697, 0.12165673606991512, -0.06735624325048128, -0.04795794258872456, -0.081792591274536, -0.00611923623263011, -0.04437387069900271, -0.12169217633889928, -0.007950234770478293, 0.14117270941508686, -0.12632161664540573, -0.032626984253834604, -0.010438446880141311, 0.11223036253968571, -0.04296225128849429, 0.0013267606961796241, 0.0959014491921305, -0.050945555357772426, 0.042590194237925844, 0.13554546144983493, -0.005876311159365322, 0.1353337852772688, -0.14336391806514243, -0.10741895980390152, 0.12211607210267916, -0.04448808342362198, -0.1393500710625665, -0.01953325074815171, 0.12562049021542693, -0.09410528941442742, -0.09745095581795049], [0.1210010707681688, 0.06775265518430718, -0.11514717516150805, 0.029513497023470114, -0.054308385248477184, 0.010138719232011234, 0.13077407003634078, -0.03183923386076966, 0.039684015257218846, -0.07418553483105181, 0.003634467469176922, -0.05557407752879649, -0.013026117728433706, -0.052177277526479784, -0.05206486610968046, 0.01701576383230788, 0.09680400568334466, -0.03347357410348034, 0.10240967570629694, 0.1182579585100555, -0.14707777844031225, 0.10404491743999733, 0.05741004992722784, -0.1341537206066514, 0.06618919019479938, 0.05453779522544455, -0.05409294044383364, -0.08518990093598995, 0.1426201195865731, 0.06295727847610044, 0.03478739197959685, -0.09160756579001654, 0.08968171704652936, 0.0618337970832292, 0.036919406864860255, 0.018774894504184236, -0.08754691632920242, 0.11794462388264931, -0.128059556179062, 0.04368440402668386, 0.07022284922535396, 0.11050355643440357, 0.03057499478180123, 0.11323080498644095, 0.04248897113865449, 0.034062871659431865, -0.13767418647394242, -0.07415504869528743, 0.05029244038465974, 0.14606689089722286, -0.1387432580653013, -0.11057449861301558, -0.034081739284501145, 0.09516199164774627, 0.10041633041449985, -0.07896637857783126, -0.018433960997360332, -0.10227677969099946, -0.1438048142839475, 0.06245910203927865, 0.009342519185659232, -0.05148806957615773, -0.13574693732918208, 0.047031930099946356], [-0.02158053869256532, -0.049383201081422176, 0.1269147547771468, -0.08285665604330072, 0.10648836164996495, 0.08290977177118558, -0.1468112716872821, -0.03611577451829805, 0.0482300646291659, 0.04847738252364553, -0.032956688855627136, 0.14225001121224456, -0.05053479921462446, 0.1145431267206945, 0.0208527495905087, -0.007921670991492685, 0.040818050631538094, -0.034359838668770626, 0.042176525536619464, 0.02300747061192382, 0.103406596926857, -0.11155782318482431, 0.13391505666164416, -0.13651015491449067, 0.08794822875301148, 0.09505782784324843, -0.02992487497206335, -0.05150589844987778, -0.07596160667995706, 0.14031128001685494, -0.061490598459336826, 0.03789034154698642, 0.09295165015133597, -0.008034430043173446, -0.04867338914830073, -0.1051101337958156, 0.07383954530535233, -0.048784127041124045, 0.033356179683975, 0.10306760356487626, -0.011985018035982453, 0.14071309076841848, -0.004362422203178534, 0.05233181037603982, 0.1040555285577433, 0.09598961414669216, -0.147219914654064, -0.07353663863053687, -0.08506206438257444, 0.10863429696861421, 0.03488998114026273, -0.04314136446988036, 0.1401690080775721, 0.12349353047213568, 0.08948496351854737, 0.05328124263750467, -0.0051241648573082665, -0.060014618348270835, -0.11706890915623235, -0.1033044557293486, 0.09627700442635054, -0.11816518990718258, -0.12399146742697277, 0.02340873285418596], [0.09182730453316193, -0.144013246243249, 0.046825308083323774, -0.05030132390324672, -0.0001909852484666963, -0.05966993598238855, 0.14278954644004582, 0.018704137640480734, 0.12062034237553226, -0.025169698139435218, -0.14101848746311427, -0.11169669597148751, 0.036649005449162775, 0.14352925620569612, -0.07613794961390784, -0.0516926733231607, 0.11625126232702854, 0.063915240051648, -0.059693473996943525, 0.09618804894173577, -0.007894631335730817, -0.07124405928326376, -0.025200261087537895, -0.12346200006231875, 0.04001968200311587, -0.10458518511072082, -0.1043562574439274, -0.14284278429348288, -0.04647724180450401, 0.010084923823729136, -0.06873674994989676, -0.09691772902701815, 0.08113992074947396, 0.007595733237851704, -0.03520883881187756, -0.0841138086956507, -0.038597015980263785, -0.13660955646610223, -0.14476094022748112, 0.06374402031581042, -0.02834551796121465, 0.01057740968105933, 0.053248889791162574, -0.11805513387297821, 0.09540160017192448, -0.12078457715634783, -0.06803755615895409, -0.0714227796491463, 0.09510876579078875, -0.14337563510687096, 0.110405650280754, -0.07277524128084237, -0.11932538469058457, 0.012941970799154434, -0.14497221698845547, -0.07043397197252015, -0.12823699178554437, 0.006322855541308403, -0.04577247164280772, -0.048133428086499286, 0.053747426935575854, -0.12840451949586246, 0.11359657159278969, -0.033970092747085484], [-0.07758523011595646, 0.024954673431649893, -0.08842445468092142, 0.13113304251929875, -0.019954157435163905, 0.036892013465908285, -0.06273903002732273, -0.03861511828259158, -0.08341865185789975, 0.07560257951675695, 0.018037259956785262, -0.0818674458742965, -0.011125006519490499, 0.11166727277988714, -0.02040903394807958, 0.05088465955637769, 0.10407733521225027, 0.027128248404779565, 0.13058616666197265, 0.0732543190014211, 0.13208299027034742, 0.0341456749966971, -0.05108798919402381, -0.047194682603393545, 0.026504561571632057, 0.03923760920071215, 0.008487185295189853, 0.04521652702346618, 0.1046524407442373, 0.010507872709831001, 0.024880027429596885, 0.12538916635263836, 0.12605745548168867, 0.07111793950089262, 0.061639531993976954, -0.09946690465290733, -0.06439648371225208, 0.0414088804993307, -0.08416168907878115, -0.021445146514192798, 0.1318396818736441, -0.07939070866867864, -0.1373257812328374, -0.11708241064602544, 0.10077425506261936, 0.11569098450333737, -0.08746555134782652, -0.1261821571041481, 0.03397194486767657, 0.02645544111723311, -0.03781255826077605, 0.025615786355145415, -0.06355388727862558, 0.0847578606819469, 0.01970190101447583, -0.020688642953843872, -0.049570775345053775, -0.06421581939199289, 0.14426462116330158, 0.0646153251470371, 0.01990176331433255, -0.10110936155041578, 0.11233713145835872, -0.049981369650972066], [-0.11768421902382445, 0.13505148552053414, 0.10301241763176161, -0.06580104576600022, -0.044431554276645524, -0.07649950256542017, 0.13552321471691015, -0.030635896806837842, -0.10293959931721271, 0.1018749388952126, -0.073991212809065, -0.02777880126870881, 0.09121077336365005, -0.13276099790850984, -0.04543782231474727, 0.10581862768829159, 0.14017662177963935, -0.03361170320991998, -0.05092434149480038, 0.0861750737184113, -0.14709165617496692, -0.002139765374772312, 0.13301678917506216, 0.09605786712760966, 0.09146140247602433, 0.1286812606198396, 0.06777315186058044, 0.09195178420236386, -0.01511456678609377, 0.06293286146845287, 0.0025414532579890736, -0.04941280460929992, 0.13670840892778557, -0.1405241477341843, 0.06749318165692628, -0.13920350441949458, -0.1428367491954145, -0.10846418765145238, 0.10299221603734049, 0.038223904579213014, -0.10468311725091643, 0.13085913167085467, -0.014599729101992615, 0.13745951619252017, 0.138452698728738, -0.027247973631868913, -0.08762659428178164, -0.0033043890087334216, 0.02099619950454862, 0.039254153737972974, 0.05602113240720252, -0.04908700559459567, -0.08680296452856037, -0.06372222665008748, 0.049257495375266636, -0.07395376214779403, 0.1304512831224297, -0.022048212089565783, -0.03764358454754399, -0.11305278386875647, 0.10532083123412656, 0.05947400705787034, 0.06515021413908234, 0.1063181827039204], [-0.11510268396994897, -0.046741311592191956, 0.11235823589528643, 0.12850682699829458, 0.07922290813004995, -0.06403370552716887, 0.07808094622286063, -0.04961744526805102, -0.06884643412659923, 0.028202593524207953, -0.0012482623462946874, 0.004299445768956411, -0.12073598181960646, -0.07934766113939473, -0.1458021581675029, -0.02522681041582525, -0.02771849115309881, 0.08963046361034516, -0.009214528501202301, -0.14555715353688647, 0.060723679213491255, -0.0019744022898472158, 0.10951448183659807, -0.057169799736021626, -0.08814495603614929, 0.009506468838686999, -0.05333747974600776, -0.12239735599922348, 0.05834298009073463, -0.0943978248042005, -0.057568178675422674, -0.02301623051677318, 0.10824561325134663, -0.13309750668017617, -0.10479830546482857, -0.10414571267600191, -0.12165035832943846, -0.022667935003224643, -0.1471530065557566, 0.13146510693989316, 0.12812247759621725, -0.13055130021570974, 9.67140684966783e-05, 0.016550815179385087, -0.026005082376947236, 0.11700823958078321, 0.06374370632111495, -0.14715741474243954, -0.12933085229164468, -0.12176702358485311, 0.09732107360657807, 0.13729062343883985, 0.08100850886587738, 0.006667334656811297, -0.10700942275189129, 0.09635756710203483, -0.046070475207905956, -0.09425086168072057, -0.12388495892470909, 0.1124131765112818, 0.12915710049025164, -0.05936666074325096, -0.0692279600806462, -0.05307344514472169], [-0.1362513415259597, 0.14492423167969254, -0.07221004797466463, -0.09587544684981715, -0.1422894031279246, 0.08641384596911728, 0.09475473305777962, 0.14356197720828234, 0.0010440155069931234, -0.08048486092940027, -0.08137775337175605, -0.007491205890538116, 0.03653838500962264, -0.12607780107369784, 0.14297603836941813, 0.11422472677730605, -0.039683652163338745, -0.01751597497051738, 0.09449431765991564, -0.03231294471905069, -0.11801338223028052, 0.11688030278276118, 0.03635192322322364, 0.006466186526405349, -0.10880559892731144, 0.0722070889005805, 0.13900236022785573, 0.0060335923421039606, -0.0508253509513535, -0.1426140905367401, -0.09163008461300653, 0.07777058992611902, -0.08456594289925048, 0.025026437924323214, -0.03319211380605468, 0.0472883906802965, 0.015475313743477964, 0.11743580161351486, 0.06177085425665796, -0.016859189394762886, 0.09441632180612924, 0.05167779627018826, -0.13393906813621884, 0.08251522418554388, -0.03939477513386208, 0.012264792322285972, -0.03155195954445683, 0.038765411749657225, 0.13343763159731048, 0.11168261604496621, -0.04081913576688877, 0.007139916112306743, 0.052112227668109995, -0.04696374830707481, 0.01769456933842331, 0.06637467687632861, 0.08551430051029418, -0.09792093980962922, 0.023967438014122183, 0.014627290531664228, -0.07193749354579033, 0.10445664463606774, -0.0016405735070824656, -0.08866014326957691], [0.033064289266906466, -0.10679069082163528, 0.06374401120725537, -0.14331233159898285, -0.14677358469380622, 0.019912541592286365, 0.05768551002942082, -0.031702738076254566, 0.1334782340326357, -0.0876474862934496, -0.1130768958955936, 0.13745375896279977, 0.03870608478430276, -0.06593130224483991, 0.02252690135582, -0.0004205753412767077, 0.14636526679032585, -0.08318509004835971, -0.040611067147742694, -0.11530220805712116, 0.11396189852946176, 0.032815421461746624, 0.051954874834607756, 0.1283790905970854, 0.11328941266753972, -0.02115210646063101, -0.035707036506812576, 0.10449562509802762, -0.13092551812159406, 0.14814169828650825, -0.1386598889007399, -0.05321479149564663, 0.1092765401737329, -0.02741970091740059, -0.07289173744680996, -0.1252337623830486, -0.03965491871248107, -0.07132562580827531, 0.13919859349140107, 0.044771553857481605, -0.08118822485874004, -0.09894791938552655, -0.07902031722582394, -0.10063660189673668, -0.01586751442458073, 0.07971216765900851, 0.12188259202304474, -0.09620418093952439, 0.0058990860747233365, -0.06794059251782805, -0.10112420806111357, 0.10609524132505133, 0.023842022831854826, 0.1239416164658293, 0.09960050563638237, 0.024164429056525383, 0.03199292349765245, -0.036960033052269484, 0.14430500575884947, -0.1413249323990641, 0.004156116647584668, -0.02084423215981715, -0.05959605312516092, 0.03646881925417034], [0.12612400885240588, -0.07884963626276614, 0.04050616573996457, -0.0862131521396707, -0.0614217309534153, 0.029706867066763676, -0.11376872606488611, -0.016312670800116613, 0.0066050482305063385, -0.06617583783862367, -0.040223723920132126, 0.08708431878945527, 0.018570245326542112, 0.05496781334242701, 0.12361116697066954, -0.0028245912244919957, -0.05569676365867263, 0.12638088583051993, 0.01343400210386253, -0.06283332306248512, 0.06956305542069754, -0.10251310527650447, 0.12486345192398152, 0.08011221572766752, -0.061320445420413275, -0.0685994041420035, -0.05493204108531387, -0.10771695615482135, -0.09125660885981565, -0.0611889425856216, -0.12497081629773525, -0.06058342635638976, -0.11438279513674937, -0.013769918755951932, -0.09360629685409974, 0.1355681920444043, 0.005514263891702925, 0.11633424490992023, 0.057664878633289535, -0.09130364154672686, 0.089627284288338, 0.10971075954973936, 0.08033939789922104, 0.03342020441729862, -0.06985228695869207, -0.03621103594151345, 0.04893195049872673, -0.13784752832063357, -0.03998625477364981, -0.034983411297399306, -0.1307405001395641, -0.10825639068345837, 0.06062378696426535, 0.0009356572988254708, 0.08903226087854932, -0.08748168430905637, 0.10318511899454813, 0.09657946253204891, 0.003177980175073203, -0.005286584892854634, 0.00799229854100908, -0.12966741533953302, -0.02289520110163895, 0.13181343976083187], [0.09915075494474224, 0.04181509684716048, -0.14016087121521467, -0.11611568073584384, -0.09711187378505318, -0.09683707281237972, 0.054149267236060505, -0.0029279333123244655, 0.06167049793438023, -0.1252811516222844, -0.0721223141865648, -0.005749504913015041, -0.039442951478604146, -0.003425045380172964, -0.023871404779935476, 0.0429734693285381, 0.11989970247117943, -0.056273232003158355, 0.02354080701396455, -0.04137813911495336, -0.03022961157841636, -0.1340045261149463, -0.04073307883072533, -0.06276912121221997, -0.05130615469077987, -0.11902109022566515, -0.04410045324218982, -0.12190917014388516, 0.11287537816059823, 0.09376420414329836, -0.033583627618196873, 0.1336263653132681, -0.12190050192426442, -0.032459143574827, 0.0785669134777961, 0.032161028752375614, -0.0032515076946129096, 0.008632047949036187, -0.13209686481695715, -0.10225617863474201, 0.004858007047091412, -0.05809986857206276, 0.06302390201959984, -0.09185936745561887, -0.04465380204397214, 0.02135741556815049, 0.11673070901307692, 0.001593166337828661, 0.11769506391936774, -0.14372399367620176, -0.002011346208498327, 0.008432301085647048, 0.11832078557045606, 0.004647940936930162, -0.04245219924957673, 0.1252736301222967, 0.09945892581855739, -0.12961339846528952, -0.05462276486649874, 0.05729668068310595, 0.10460804485028835, 0.13023541492772234, -0.10057403190140546, 0.12774149991751815], [0.07367170776927609, 0.1279259976379165, 0.018792368466962917, 0.056733851970001914, -0.0028445406135800266, 0.05499345192645502, 0.026549927373180654, 0.12482066514035922, -0.07626236594275021, -0.06363299730405188, -0.10344506550289129, -0.1404330450391156, 0.13114605438880306, 0.10996153640296902, -0.00797919987911791, 0.009842237979264423, -0.011612095813104628, -0.13422822599017648, 0.030038664046185715, -0.09516617922624042, 0.1350156098552962, 0.019915569649303355, -0.022417554245755117, -0.09141434641908228, 0.09318952953356566, 0.034069084575584385, -0.1117724076903343, -0.13274517712781256, 0.10997531526177079, -0.12412097297659247, 0.03383457527895589, -0.1309810869379508, -0.10615461773321902, 0.043320911285388675, -0.09833526673228232, 0.02018428344242945, 0.04901807688601639, -0.0026135787023477963, -0.059784630302767525, 0.024294446925448188, 0.060436702533551795, 0.07965944462495828, 0.10357240682056407, 0.010739452787248999, 0.000980552718439942, -0.05530334937856629, -0.08977238531894795, 0.13575104136058425, 0.034169387312562804, -0.032972212632006836, -0.10778734764189912, -0.013994216785723157, 0.013085177515743202, 0.021229652855296127, 0.0828028659017562, -0.0407961446994006, 0.043838764436409605, -0.1071485172037591, 0.07493855321194826, 0.050554888747901205, 0.11160000104158263, 0.04073704634693742, -0.000660435469542836, -0.07240176072369461], [0.11615052292893363, 0.09545703563791333, 0.0967673917149893, 0.09760328626117287, -0.08041661245329712, -0.020584270599457305, 0.08107116795077157, -0.013960683973733318, 0.08380108238169665, -0.0069719793222827176, -0.012855951919454683, -0.09562359709248539, 0.10936406138080329, -0.08428401685080028, -0.129574345703816, -0.1207391681203932, -0.1476082238456002, -0.05739020829868212, -0.008582063233497111, -0.07119559308865274, 0.09870441657854997, 0.11028844959756867, 0.08752329788704441, 0.09057500943048205, -0.08685875275631608, -0.019020348681312443, -0.017017986996761436, -0.01882660132501021, 0.11489015215258336, -0.08170843337309958, 0.07886673302929584, 0.02737547536471696, 0.13245717418478514, -0.1403584828008358, -0.07106821372598876, -0.12285790898651805, 0.13408117460116065, 0.060513711947696086, 0.008589659029078767, -0.10354236786967762, 0.020957479706834037, -0.12297863382496016, 0.007049682041296301, -0.0234173408035432, -0.10329397257161294, 0.05842178666153852, 0.07432964593857605, 0.0799459401308911, 0.12490589899985449, 0.026890710995972872, -0.05055476011387734, -0.00952983551875028, -0.018848167421084, 0.061025555491022065, 0.054429803374154095, 0.13712181036558896, 0.004500571935549202, 0.04986859048065634, 0.08482099797639495, 0.1201102698987237, 0.11562370800827515, 0.07736358129537199, -0.10788899036871544, 0.11917114567133752], [-0.14200360419813168, 0.030030568611697506, 0.13225009777787322, 0.082203493440061, 0.02659317965867042, -0.025085386025930898, 0.06037175147492893, 0.028571348346701497, 0.035167004821775594, -0.13747197084361687, 0.08480449309168109, 0.030039784922675755, 0.12114085587216833, 0.06722397919330506, -0.0430975335413621, 0.07800081080267965, 0.02440998767053279, 0.1287352707925365, -0.10211595019403026, -0.14645560121393286, 0.03221953505112346, 0.10329842232881148, 0.12873797274819243, 0.0972014996888185, 0.006251019650899747, -0.09899200910028444, 0.11982910464635599, -0.14173045991678718, -0.11603514910663859, 0.00890627728448004, -0.04424589363079426, 0.01858597648530566, -0.06027838274723636, -0.07663487260159622, 0.0620152243133088, 0.010629713572941624, 0.04530015060113429, -0.07960743666645245, -0.10077146017336219, 0.06062132623825278, -0.008959891165160438, -0.13186995300245238, -0.13291318518336126, 0.03225114872287807, 0.06180055064183296, 0.13844880565137696, -0.022204903798033304, 0.03578305393482745, -0.060613110183776395, 0.03710344934114895, 0.14210805128068543, -0.06174967491484523, 0.03733461715531072, -0.11108731815402692, -0.015792350824084367, 0.07772742997143209, -0.04408715043095156, -0.06478426002931044, 0.06885879704495576, -0.07663749923209147, -0.11578497797617888, 0.07092708730719743, 0.07447914835835795, -0.059624211791012044], [0.07757576660236237, 0.02025250807694065, 0.04579247511477427, 0.09741611989026039, 0.14524142390365596, -0.02280746514635759, -0.08092626239642488, 0.056174976393123854, -0.05653067935846756, 0.005264331434464836, 0.06642766497947608, 0.035951742787472735, -0.11380044931071046, 0.1278243188273519, -0.030348318659878706, 0.1332851902380473, 0.04609579853508147, -0.014623944552662194, 0.03759666014166138, -0.009743692598759762, -0.1137564396112648, 0.08961463500954428, -0.05885426942876677, 0.05015578958449887, 0.1347229000766802, -0.09846133637622062, 0.024978462552686598, -0.10759386365012234, 0.06714917105065857, 0.13539393660683585, 0.07568972749757774, -0.007724905081098382, 0.09593742324846469, 0.11038221465197473, 0.030704884712425357, 0.09372707369645228, -0.07089180273240814, -0.13080471020730483, 0.04334938043912881, 0.014794188444220036, 0.08711434604152271, 0.10001997657887032, 0.11351472255968398, 0.12787063396905357, 0.004696592020402374, -0.05803888420469751, 0.04617365575271129, -0.004163094175550219, -0.1272662451852374, 0.006961491477680382, -0.03439222015422097, -0.025150900572917537, 0.08014447642752487, -0.02495723022845163, 0.06997085840769013, -0.11073303975963075, 0.10658060904904082, 0.060794905121238224, 0.023204715679535304, -0.011729259167630818, -0.014190053816256876, -0.051938776043517446, 0.03317357601516638, 0.058013813166893774], [-0.029818354810155115, 0.14051491037706704, 0.03403507698843608, -0.10525878070281794, 0.05655673781311471, -0.025894312367397185, -0.08405147824557684, 0.08098456454065317, 0.06516292586403283, -0.06168270330483172, -0.11983585204058339, -0.02797993194438876, 0.013466402987365705, -0.04600219920082288, -0.026150129133517885, 0.03766875592575053, 0.01703140067912104, -0.10167875674534607, -0.13462385983422726, 0.08387582455091411, -0.01758246541964964, -0.03079647579530803, -0.10906234471170152, -0.06301726544511282, 0.01646892478026024, -0.0009214427231971356, -0.0783693831200176, 0.0113970951014212, -0.056345125478039826, 0.08213045166626395, -0.12734748401463897, -0.14391916715033007, -0.10340344822707509, 0.1436969956755167, 0.1381930599698094, 0.10515757473939208, 0.12882199088972007, 0.09507870359987308, 0.07306635040068965, 0.02083978243657081, 0.13056764473609583, 0.05847735421317832, -0.06689391263225773, -0.0028102436183331247, 0.118421277793817, -0.010611954333153123, -0.054665359640336086, 0.12425577852960312, -0.033027362299450996, 0.12213554356440282, -0.10991826349245681, 0.1271955570003076, 0.10725929949696145, -0.08972772585178981, 0.01775506487505743, 0.08462098518224245, 0.0859894549686323, 0.017827289259801177, 0.0717492241978109, -0.05719801158344413, 0.05432656656222712, -0.008315872053919399, -0.032442518267041046, 0.10808033982052367], [0.08055496007392726, -0.022171452591552288, -0.14085847563169004, 0.13265483631730524, 0.1476344244030664, 0.13406570854800964, 0.0453822880599313, 0.03777216825895341, 0.0876203743903709, -0.06625458077251993, 0.14469140897250943, 0.08522474842578706, -0.007733001005880286, 0.06325135109719274, 0.12074070924164021, -0.09478908993376843, -0.09321525136397554, -0.05142191973378095, 0.01564539033586418, 0.10882340895853615, 0.03295112369725442, -0.0784362504486254, 0.0873588651424991, 0.06412193935974345, -0.12251134643879674, 0.13726475008255845, 0.10419302575065498, 0.013515403129537473, 0.1368812954924175, 0.10878153483622294, -0.0640977623874059, 0.06616417147752116, -0.08438794736060758, -0.003145394314129135, -0.10429061412630776, 0.043587152933936196, -0.005489259451711775, 0.004041337479614743, -0.048130075287129634, -0.0729784046303247, -0.05726775716851644, -0.10870284279474955, -0.02091827140415392, -0.06564981001606639, 0.11128196813478147, -0.07324741887824529, 0.025883415304513158, -0.07048308911291479, 0.10364380111261795, 0.11807995784808628, 0.0177552164378455, -0.037137018093265986, 0.09553997860074667, 0.0027173270341487588, -0.1386768109086676, -0.032250414684355924, 0.09493220684365794, 0.11862121490529437, 0.07439933465692608, 0.06902109682759838, -0.01827903511819065, 0.0481812684527885, -0.1001382189053335, 0.03024194070969058], [-0.10653458959689377, 0.05289185155751411, -0.06105624092473215, -0.05035085128040974, 0.14686782004900545, -0.04828577496669738, 0.024457197543816145, 0.1437497761610675, -0.10842998473500158, -0.06790142743620657, -0.10189643523519304, 0.03682512257466036, 0.018609080203052852, -0.09140066777986912, 0.005846409796549656, -0.08638412212630045, -0.030515341076505095, 0.11690685933228867, -0.02029434682182163, -0.053053891039589185, 0.13445453952404435, 0.054325528930033784, 0.029521720546518027, 0.09185375953987213, 0.12435498452081567, -0.04650690291913136, -0.10223271558783173, 0.11141425893099288, -0.14238792721824167, 0.10397429844605965, 0.03976927550001494, -0.14590514910969826, -0.04985460270403312, -0.058366748710270075, -0.04163422637488111, 0.10898945208109917, -0.10208578177581581, -0.017335020495857945, 0.08068163932482769, 0.11825351475515455, 0.057943553268873293, 0.0861623446867435, 0.12175004836001324, 0.05577282354739363, 0.1327725093262404, 0.1141766917374224, -0.09032593223734828, 0.03913043836607688, -0.029271637941568535, 0.07437927794057195, 0.1081799511566795, -0.09368951107336543, -0.08601037115395377, -0.02553928742067549, -0.07462073729110688, -0.0683255391940579, 0.00024829863417857867, 0.07140697140155497, 0.08627333472150947, -0.02801782758501134, -0.035984413765264345, 0.1315340501263053, 0.02030917189104739, 0.1014218282171809], [-0.1139229779672277, -0.11796416917126334, -0.022932898051695988, -0.10896742389607153, -0.12009117904603558, -0.09016522584147477, -0.12235660854528488, -0.044300874907237234, 0.07490755976478686, 0.1311343344555571, 0.06161555371289337, 0.006243981716658548, 0.12331093866480974, 0.1460594007746125, 0.09753206890895996, 0.12530929561515924, -0.13497455347659304, -0.054772500150840495, -0.06996454721886669, 0.041937796376130015, -0.019613007570836588, -0.12798817192044437, 0.12589494350077324, -0.09402002199620763, 0.10298077495725605, -0.009487162727209397, -0.036542254160028514, 0.10813900543672111, -0.002873087680172831, 0.030700753059477226, 0.028917317581551305, -0.07976370246843063, -0.06285396779720992, -0.11699618514560609, -0.14643288049333364, -0.0750148805287977, 0.020966429834857137, 0.10042759922337022, -0.06121962719781045, 0.0565904485881393, -0.06657522452248726, -0.06866550420160948, 0.03871419148181135, 0.06777465751585543, -0.09755883872267909, 0.08864699738029438, -0.09333869406961023, 0.13365745776237142, -0.021614735696307008, -0.14461024944411158, -0.14756949845877526, -0.0612795464229238, -0.048009198308912024, 0.12384903331977021, 0.08795217670316022, 0.10991252304587906, -0.024102944987885927, 0.04582480488756488, -0.07364777303198942, 0.1304824491908822, -0.07960716380889098, 0.001713245657746637, 0.08602260177309118, -0.06988024144173283], [0.09077854659080195, -0.00396759193548224, -0.044531742403273636, -0.06144937565786057, -0.03965021398167129, 0.0709282471174705, 0.1044020618113905, -0.056635449850791206, 0.010175627385383135, -0.09546946106868745, -0.053805639024110244, 0.051662119794739336, -0.10743780798772144, 0.05202383646428138, 0.058824690429706755, 0.020220156782966986, 0.06447152332224931, 0.03276643483546976, -0.11427036759566636, -0.05919384205101352, 0.1327151428606989, -0.10580627844479072, 0.05863380919302169, 0.06477641553331287, 0.07808265039855211, 0.0649501977700048, -0.001582449688340093, 0.10561876248994773, -0.04505787200464739, 0.012460000312560698, 0.1336931680421501, -0.08663363769039317, 0.062244200424448726, 0.14599806123940506, -0.09433854329401574, 0.11067212404493237, -0.0615859861198777, 0.10564236186500142, 0.023421100802244438, -0.11221968207666716, 0.050027911978246964, 0.07264185455136946, -0.09648840504845976, -0.14307920257868098, -0.06814950848333003, 0.09174318817453239, 0.11835589672318764, 0.030103547355190247, 0.09634369209566795, 0.03413818984447711, -0.08702149728604554, -0.07428588855459363, 0.093147528920039, -0.05694335843264295, 0.0089705738248054, -0.022387254504215498, 0.05573643288023716, -0.09461341675921084, -0.0598162744042509, -0.11407180358026792, 0.026316777656770096, -0.02730243063169506, 0.04563984031681914, -0.06997296257410789], [0.1165388245644321, 0.07144085639784525, 0.03745373300389179, -0.07553369673124924, 0.05489132937373961, 0.11840572585665915, -0.09946599513445491, 0.01699850268663819, 0.08952758416325107, 0.1357929199993851, -0.1347679337353291, -0.021154686728789285, -0.14298231022578803, -0.06666738706394439, 0.05941709204318377, -0.05232892091190969, 0.0972258152048858, -0.11754453519314526, 0.004119964070750326, -0.009575843081111146, 0.11663802289254349, 0.09498222738751391, 0.007876550483555456, 0.11970120429840037, 0.10531195289442624, 0.041405938848920104, 0.00039798182966468976, 0.08619722497484272, 0.07234984001335237, 0.09922825975061714, -0.009546940432957729, -0.037952680444294284, -0.050038235823417446, 0.010652774256679737, 0.011807334362439054, 0.10617446498242894, 0.034615381034730885, -0.05800557099805048, -0.11943102588066273, 0.031144593898858985, 0.13079172610250495, -0.10116923220586026, 0.10341368524144756, 0.11482001617072835, 0.01850823372035551, 0.04623690819044243, 0.08123645655263892, 0.05223495728962024, 0.007557131605662376, -0.04860280476450787, -0.13647532854783326, 0.1404755212960499, -0.08493536904609189, -0.08844148470054461, 0.028618067267141972, 0.14214077453343993, 0.14522867953055968, -0.1411959605412125, -0.06663106592613881, -0.04631239510342745, -0.0746726530382173, -0.10138565082300119, 0.01628563880621814, -0.05975834412869009], [0.13530577860296417, -0.03248273685130498, -0.011874848300113233, -0.1448625571006199, -0.14520649190886514, 0.10261810418497314, 0.1097566041265437, -0.05140022554755867, 0.09966676516042236, -0.0346004652148367, -0.021712057432446086, 0.016052779546846474, 0.0994194342739512, -0.026101849356918935, 0.06083001255237258, -0.07494722385617081, -0.07048155915974189, -0.02872466185308968, 0.11743803510159867, 0.09269040698266251, -0.12449067642939751, 0.04635591520259005, -0.06731527817298814, 0.09733353949581572, 0.12299474312005798, 0.0678780976938054, 0.10420668526097371, 0.13737705872302625, -0.020344139716253762, 0.04211807653238886, -0.004482547315514285, 0.008253361514899415, -0.04748523944083767, 0.06365485548471778, 0.09705055465954338, 0.08618284976052251, 0.03989553482382971, -0.13464272226451016, 0.0033690930775131522, 0.09993197260793155, 0.14424726963360618, -0.07288725856950955, 0.029220466728477307, 0.0015324730592757574, 0.006853790068747173, -0.06570805096920601, 0.012424160291334613, -0.10298006539146191, -0.08080848819577231, 0.04397824662240252, 0.05661044699021195, 0.10834368314897624, -0.05606826387119966, -0.03717886961262143, -0.00032054058567101973, -0.10561985662989518, -0.07776878451745857, 0.11331847429675623, 0.06862889627250623, -0.025891718319448684, -0.05243745822966964, 0.0272071061487415, 0.08351270610549436, 0.13618776163453306], [-0.1264384826599254, -0.0934703564742179, 0.02300709145024646, -0.07649308363600602, -0.09258461927939932, -0.11707330253774763, -0.02713305281089022, 0.1359928202561343, -0.12777479584613913, -0.06961656466977728, -0.02905797404152509, -0.12209206925952736, -0.0010427421266439862, 0.02583800475145359, -0.09111830403344465, 0.019546510071947826, 0.02569993000901577, 0.0835732415688612, -0.1329152934627457, -0.0984204304607166, 0.021979926030654545, 0.013514468379424882, -0.04630058631277671, -0.01411805556697629, -0.08358659474114098, 0.03687518390268901, 0.006233899232969187, 0.12255205901861144, 0.08269768297166494, 0.053242446258486925, -0.06084951345540031, -0.033280625406170605, -0.10341527780740667, 0.07709575579761349, 0.14744970135307256, 0.08758689929746985, 0.07388765331593408, -0.008455206154545092, 0.09539592878532949, 0.1126262730666514, 0.006053442193312414, 0.06617335359305679, -0.10848553950650931, -0.04445086288431521, 0.0574867770515492, 0.013960661254008022, -0.07959168439827659, 0.01033049773705863, 0.05975061648031871, -0.0036071334412021983, 0.04135446084804442, 0.050638202142069266, 0.00570230166626981, -0.0889248002263448, 0.037150453084853347, 0.012485826624862056, 0.14733418097189177, -0.10858939420171576, 0.1358042181504286, -0.14354024746894403, -0.029744511266780377, 0.07844495939292864, -0.03930562430980246, -0.04619791067209561], [0.064766210258389, -0.0844244625933941, -0.1149458838846085, 0.062379110295584794, 0.0491300638272556, -0.10121204143712008, -0.013816541182933267, 0.015310076630912023, -0.018427026313862616, -0.06341661452014777, 0.06373777611969195, -0.06667044595152474, -0.06126501845878185, -0.09556439615922321, 0.1138657976387672, -0.07006808320128037, 0.11492297364244264, -0.14224945310837783, -0.0548514587756395, 0.04297987462357411, -0.11653483881139254, 0.005525613774793381, 0.11017850717499711, -0.046121975366429174, 0.1091406546436226, -0.00908191109148293, -0.06505331005697212, 0.05149230901980245, -0.12474642282629711, 0.040534233273336134, -0.05731111203894351, 0.13867056144810141, 0.060298599958461985, -0.040043922915398614, -0.10960304818833344, 0.1417125335105418, -0.11012167521636121, 0.08156003124491801, 0.1002949734268922, -0.018910459683278008, 0.13501569805778002, 0.0359741438110355, 0.07411279266304019, -0.06763993760545123, -0.13378301856006508, -0.07036691147153637, 0.07968554241670117, 0.030672148214745898, 0.14019395020519004, -0.12265033004519904, 0.028543990656918705, 0.02743423037044157, 0.11659302293715551, -0.06398547961066044, -0.03194032540132996, 0.03893195280850517, -0.044068356474600265, -0.013761941606624029, 0.12395039214108888, -0.10574068857824719, -0.026896840954453938, -0.11800946836064063, -0.05326844017998561, -0.00866736606655974], [-0.1324617247365488, -0.10382144758937803, 0.12624798129835596, -0.13340749699411944, -0.08064884263967313, 0.045385289438987286, -0.08986006032919695, -0.10007958737593678, -0.09532397404781051, -0.0771292304008146, -0.06275862050438724, -0.04167151386771423, -0.13510121456702281, -0.03817313626921141, -0.11941979198586836, 0.05065640617568418, -0.04872855108951292, -0.10825831099505029, -0.07835049360197141, 0.0851197779822547, 0.02417805336454959, 0.13441280072281747, -0.0827997648427198, -0.01789433968492457, -0.06612325361496062, -0.049101998147883824, -0.0047599066916834964, -0.1202966456905039, -0.045453459023463566, -0.03526493793961205, 0.12316603893223582, 0.012940660316798802, 0.08362141790626196, -0.09460898436607207, -0.13306063801695053, -0.015379431078405087, 0.09685815163526684, -0.005222196808482071, -0.09623406222059275, -0.0981743772486369, -0.11318608789334848, 0.14061771896048525, 0.13804208827574155, -0.11621591831803131, 0.14210023154075485, -0.09279317404375159, -0.11065363624077154, -0.12978501891558228, 0.0883630676301711, 0.13435758880672416, -0.06772591444923526, 0.01088011008647119, -0.07296623797388242, -0.050116642781740287, 0.046089435692799635, 0.128420775044561, -0.10455807083297525, 0.13641839709923048, -0.11170163002253279, 0.14644208721525526, 0.008721493970965388, -0.10613790921167504, -0.012835301139444727, 0.12671768930716593], [0.0594293792713291, 0.09121929901500811, -0.02235237024891687, -0.02345326020929772, -0.04419348725241273, 0.04081168792767875, -0.006655968095880371, 0.00447502636772415, -0.14579297033738406, -0.04971385270461637, -0.13162999936629793, 0.10845356116976101, -0.016681568022480164, -0.10096145523647379, 0.12904531963344806, -0.0005680970979390909, -0.013070026963543563, 0.09335287611030879, -0.08400871684210798, -0.1277298844674089, -0.08307772283045384, 0.05861317491785517, -0.07231368270113081, 0.11547453670473679, -0.07190324191943115, -0.051660216869047496, 0.021671203999656524, 0.08384780275347545, 0.10534779655011134, 0.11490937922795053, -0.01239640806806011, -0.12695837137829774, -0.10898092697986414, -0.12029913525836591, -0.004347304349076236, 0.12279098869191335, -0.07789683213251246, 0.047077300577598846, -0.05002021535636027, 0.11443002520955858, 0.09929386989959868, 0.14016252098472942, -0.1409550859972676, -0.09784159911640414, -0.06869434586475427, -0.10147445399210132, 0.13113742405827922, 0.04975155620233099, 0.09957629257125875, -0.08646009670879257, -0.011908290992803328, -0.13306876813112722, -0.062146238459746636, 0.10965426148767782, -0.06507714251621317, 0.13083915134953833, -0.06266436066237709, 0.0960130292858841, 0.0808258009872545, -0.04906379352604223, 0.030727985507416677, 0.06652311518755946, -0.09893356981936581, -0.11081580339289801], [0.05796134385264154, -0.03645010815357308, -0.09259517578120134, 0.06341094226438723, -0.14631538222731458, -0.09625375131642594, 0.016691317516547316, 0.04795143719309361, 0.0756988559585762, -0.021101023111107425, -0.12437891561821565, -0.06930005405968709, -0.14016343847050028, -0.04067100210757625, -0.10104312513378569, 0.11953028832851553, -0.07336678471596352, -0.022017590320978997, -0.048496323925462936, -0.07101774617758917, 0.07609887251261796, -0.01582286751939349, -0.04877080395875881, -0.004203176374130341, 0.03484051685023776, 0.0011626765092873637, 0.027583130081247992, 0.07512990649185844, -0.06237090871276585, 0.10435020166506342, -0.07225499472572318, -0.14266245240325076, 0.013010859991687995, 0.12550936479212688, 0.1446276259199749, 0.10566406827572883, -0.07142389483722092, -0.028393471639777082, 0.027698123776597944, -0.04368512558742842, -0.09478144111349068, 0.030837689574697985, -0.08189256690892213, -0.06786121224655842, -0.1361687518688164, 0.0945373769145515, 0.025778166348286502, -0.09900723392352637, -0.012488846135061515, -0.006307564671242105, -0.09458187482079349, 0.08970651051266601, 0.05060339863890423, -0.1382731865191275, -0.048734588746619914, 0.020856524485857453, -0.0012042634772108929, -0.04348668291150147, 0.049288543744744756, 0.0907641689406595, -0.12650763422455483, -0.14307250880288658, -0.05670413686123847, 0.08938621927324614], [-0.0805099888218896, -0.14272485338738874, 0.06608420441715371, 0.050971105765851954, 0.11236382745365897, -0.07245124103882446, -0.07277218472804643, -0.102528951671041, -0.021145994365360715, 0.02375540503554882, 0.14128055852596677, -0.10439843743614373, -0.03713979813426038, 0.007641585958858194, 0.1293105154945247, -0.044329373495923766, 0.11391363044388242, 0.03380536805314183, 0.06800077599023982, 0.11574026909513363, 0.033518336437227125, 0.10176286909911686, 0.014944180720083827, -0.021569343718456785, -0.02083161852077242, -0.023838124565885868, 0.11011323859306915, -0.12045342813590568, -0.13644013271689193, -0.12782914924243205, 0.13908953273579927, -0.14270249167074633, 0.09907693948177457, -0.04231737925101302, 0.1231706192213815, -0.033712089807729065, -0.13383349977287196, -0.008432539453654325, -0.06682927608420945, 0.01631014713136783, -0.08447334309846811, 0.06641993079766506, 0.08730311622609627, -0.006325924599885596, 0.13828015256444598, -0.12017966173929814, -0.12885747272511433, 0.10866697017203153, -0.03084135097042133, 0.042290460135401275, 0.09610601647548386, 0.020164087838379335, -0.09049355577758558, -0.11429751349346207, 0.10854521724406013, 0.03570867682297876, -0.015270307607288869, 0.07091587741172775, -0.029629115936713316, -0.052422106132269414, 0.031960246546468535, 0.10746795833846551, -0.1421630992005687, 0.03610629350815228], [0.03644627336039771, -0.050484781972220005, 0.12676761246956747, -0.06237511730245186, 0.06329240493208754, -0.14079331443614893, -0.10476739773444863, -0.07105685840830551, 0.030116080226223335, -0.122002475329722, 0.09542249766473121, 0.019461595408654053, -0.10701370938487009, 0.08853790986429924, 0.13872206427320816, -0.019261495657598077, 0.10991080203138104, -0.12340043531145943, -0.13228817608456114, 0.004714555405773313, -0.026965256009392605, -0.061541334119534, 0.0015023913866412109, -0.035552607515695625, 0.09279196868217474, -0.11695972337341536, 0.10300942809502195, 0.03953715746298392, -0.12174751918198459, -0.0817116495178079, -0.020082046624464306, -0.00791383581005739, 0.0684061522916504, -0.032371179506271205, -0.1139160871768606, -0.11284718752400869, 0.14332321144125454, 0.026388995438363844, 0.1074797657819006, -0.14700289419725787, -0.024325950240577612, -0.07640468247735419, -0.1479164089929274, -0.09484011975310125, 0.1409111170917876, 0.07194361220445361, 0.11882733108267207, 0.0343401968088034, 0.04513798696704327, 0.0417829767191496, -0.07856389769245758, 0.020549943716793667, -0.0495059300968794, 0.005309920491885861, 0.0400643178553938, 0.14077588289012727, 0.0023377571200528524, -0.14133182866469668, -0.02767802360444059, 0.05010853226592896, 0.030698673297416407, -0.11269777996487398, -0.07111108463887274, -0.08774427359021425], [-0.14454876497801555, -0.11456879135173324, -0.06917992314892706, -0.010438551171527338, 0.10825881772601836, 0.1432248316343584, -0.10345527572808069, -0.09918123193134638, 0.13725171163956107, -0.06679729959498455, 0.02577214038763581, -0.025727027757302318, -0.1205094430978437, -0.057028502265742104, -0.05005693595457064, -0.10321015805449738, -0.006862972877923895, -0.09145971817061489, -0.0486351382686359, -0.0897635964889407, 0.08890617603881268, -0.09829880272567215, 0.06375907824585994, 0.030288019136445993, 0.08639182594367406, 0.029727662377241393, 0.1137529934152729, -0.05417281057020357, 0.0702122652048719, 0.0827618462081472, 0.018993211028257156, -0.08014880214292466, 0.08688980909935268, 0.0024334655261432636, 0.08377290918040134, -0.01941321070053245, 0.05979598127641972, 0.08055587011324608, -0.11115217172978983, -0.084593229627592, -0.06286060575278737, -0.03836062052113019, 0.12482014560772303, 0.1314345793624287, -0.030813420104296718, 0.07161467235603494, 0.07336249664123032, -0.03721635279956419, -0.006813308077824737, -0.1368413690255829, -0.10853920627496881, -0.14043930278821154, -0.08818564010895832, -0.05616567685325101, 0.13102896338486986, -0.025720327658572212, -0.14562693219193903, 0.02548051356712769, -0.07810649545283152, 0.04802331751988814, -0.07207302144869665, -0.0401076435954935, 0.028877014645922072, 0.13677729893246382], [-0.09832037879135419, 0.03274643926690973, 0.05176335684224492, -0.06984466368758167, 0.003486283488706138, -0.037113142617654776, 0.023451808381205558, 0.06893317337374705, -0.0013621130708208196, -0.02507818258622954, 0.02083983465026379, 0.14723376965342744, -0.01624400787943875, 0.07262637504708788, -0.09280326830555806, -0.0014458825949920373, -0.05685904885628265, -0.0757621446432501, -0.11869405172400582, 0.10197903585984325, 0.13101393328346206, 0.03585794528560182, 0.05252488959110485, -0.0975785000261635, 0.06412089001190147, 0.006239194088053762, -0.04076671979085483, -0.029336661403835812, 0.017294297156771, 0.051270661611260926, -0.04134320004239367, -0.02682672099946011, 0.03018220159221041, 0.11648916376160423, -0.0025214462518697023, 0.031341485751817, 0.08430388924538956, 0.11954392654631607, 0.14679138501956268, -0.13565219845179716, -0.11387986494245114, -0.13051241419811987, -0.1384039644087942, 0.008232061645157468, -0.051276857697214503, -0.11139641149077148, 0.11416659631463705, -0.017474531724084724, 0.001802999423256152, -0.03268568930717142, -0.07765648230850998, -0.009099109695287572, 0.11280698632325253, -0.03154823848641508, 0.08580629034266399, -0.11413856056042916, -0.11842696325847067, -0.05452949517483889, -0.13389615703482757, -0.1223963311093437, 0.13613747101011076, 0.14260721549829591, 0.033139373180564674, -0.12329288894461782], [-0.11865783316742812, -0.05630132408233507, -0.14456594524292266, 0.04420058361274257, 0.008043468336665888, 0.04561400773149257, -0.13090536646696582, 0.06088225574383821, -0.05730386339742716, -0.0626038410583728, -0.0854318425353014, -0.0822814665868341, 0.08514464808389849, 0.03514926607061017, -0.11505754966094286, -0.012691676303603266, 0.025427272368139464, 0.1126348334756947, -0.017179183392922348, -0.038840023198582194, 0.08668642744480479, -0.0870639180162151, -0.049177856394957684, -0.12502657070531092, 0.13756958323794422, 0.04645070844105814, -0.06624441618420035, -0.07152403628031286, 0.13051216009385458, -0.028081426529018627, 0.0710445560164433, -0.08411495029542516, 0.062114682395168846, -0.07098332287597077, -0.14783106925907855, 0.04684765459224277, -0.053125949244545015, 0.008630539814857147, 0.050913711229770786, 0.06366640854887301, -0.09817720694904197, -0.07155244810248873, 0.12268368634829269, -0.003896293876956225, -0.04774353568931032, 0.007694359230172948, -0.08382536477089776, -0.002396523900548314, 0.01863703108094547, 0.12825177906099372, 0.1409308747588286, -0.045191089585866165, -0.03330122687837399, 0.01751456382254893, -0.09328694964703874, 0.09542096961921778, 0.029617862425070224, 0.0038944396947438176, 0.134404150448924, -0.1250381544042046, 0.05586310461089153, -0.0036172146095328483, -0.052685421383043385, -0.02288618551247959], [-0.01615341285093927, 0.12744973562824324, -0.14775120357592222, -0.09291125093588501, -0.04317705431426479, 0.13415869944651326, -0.1253996627538057, -0.13763329944435992, 0.12797332275961953, -0.11362753585947688, -0.10968901186530125, 0.05810678434272573, 0.10506109746652803, 0.021621614094801594, 0.09347648581351495, -0.02609605178364989, -0.14442789908401274, -0.0343010697978976, -0.018433426813364517, -0.10634320065599345, 0.1262334179020818, -0.11393276123080374, 0.06342719836880945, -0.07936682250062024, 0.1262188639885623, 0.03486845692183643, -0.044666339449965814, 0.0746788031427984, -0.1165011346197676, 0.06254210193913348, -0.12727145691091388, 0.028739071344103417, 0.08456780600597136, 0.13615502118351597, 0.03469968156208472, -0.0201236731526048, -0.09321084466031099, -0.00925618413546464, 0.043376740502500344, 0.07289359116567509, -0.003237606508451313, -0.04110222685799013, 0.08550621159626798, 0.0445835980209843, -0.14280908228316463, 0.014304342811611276, 0.06034254890386648, -0.028793144252796027, -0.09325979456933173, -0.014016801601060419, -0.07227445897347268, -0.124095825055831, -0.002398466260169818, 0.12543301228553277, 0.04736020222846865, -0.015192156592598038, -0.12470932528339587, -0.050134396557603406, -0.02854149605552954, -0.1435475043603033, 0.13625635791588564, -0.021343120854696612, 0.023425703929476765, -0.08360570965992647], [0.07453802707108048, -0.0009117753636906367, 0.061684780946247214, -0.029598405955536047, -0.009056743697868519, 0.12972469322008018, 0.06313351601153541, -0.029376791724792628, 0.14391695978432095, -0.07894058551195061, 0.11153064436520344, 0.0030906389963635816, 0.017217728868555632, -0.03564645705458079, 0.08434575251268109, -0.07652726111888739, 0.022193351932739303, 0.13243954042119216, 0.10744301723735189, -0.09375941446757378, -0.12767854424684116, 0.034001496878017706, 0.12723067475057376, -0.055739252426015976, 0.018266018036664472, -0.010867973116027163, -0.015272796207686568, -0.027243118372420494, 0.050331723609848195, -0.06164284970860376, 0.12853905130086613, 0.030750957320637956, 0.12505331387750385, 0.13462654609141628, 0.1468114137278867, 0.05950152180690915, -0.08233206871876847, 0.009325998490641974, 0.04334868955535148, -0.11396983862543486, 0.04429534838019111, -0.049326913472499775, 0.04086448617048005, 0.011008415500923713, 0.06540827707186872, -0.12515009589506537, -0.1332847388498622, 0.028534721942442415, -0.02213961510413731, 0.1369528666279956, -0.044665335081425325, 0.016050636647095412, 0.13762704643245016, -0.06798432507097382, 0.12950227205944803, -0.04185475902590248, -0.031876138732743864, -0.10463400652071157, -0.010716510347758723, 0.014478679377332992, -0.1453394136692134, 0.07672866904781131, -0.06076813225781391, 0.07786005329360246], [0.039880744746813995, -0.016297370131816286, 0.07477358001413054, 0.06704964060859914, -0.10869892728170535, 0.1447786197896445, 0.04025021739460877, 0.031000268981591417, 0.14146072545860933, 0.04364990642095534, -0.03937831526256626, -0.050254168960702145, -0.04279994051504045, 0.07349771240461592, -0.056289550592826865, 0.06796343201875832, -0.13228705757687945, -0.10601359275537862, 0.04077376700985891, -0.11817338782805958, -0.05141648938842176, -0.050386656884736605, 0.007275790306351254, 0.09298396577967993, -0.0005224814527360899, -0.13723819199125137, 0.03083237393928351, 0.1317218871222241, 0.07386233539379175, 0.07204902155624077, -0.034066336151967774, 0.036568559922492555, 0.09557768559210447, 0.056660482732436485, 0.04593335293095513, -0.06195555148908652, 0.04631451882979487, -0.09942986737557685, -0.00622464740711029, -0.054833723025236064, 0.1377700232410849, -0.021191532532673668, -0.13921148783075107, 0.10193837338468664, -0.1389950277841695, -0.046594053422401985, 0.08442398635833034, 0.06861724541678998, 0.0837847097970994, 0.07064763015656766, -0.08544265278576267, 0.0955167543275576, -0.07263115658201251, -0.011938730795117508, 0.026550362891308188, -0.0875885397715052, 0.012662330570520963, 0.10857695552425878, 0.020027878273083555, -0.1312984049345077, 0.13370591764048395, 0.13988983438141417, 0.00742587642928999, -0.1229230732391229], [-0.003348273845928812, -0.1338761467624312, -0.014645567189425002, 0.04239879821049497, -0.14576176272913074, 0.04007085398035565, 0.06265885905069965, 0.13239248625805317, 0.0777023084209699, 0.13969933300866327, -0.10297949121406055, 0.034549662820055504, -0.14399877354368965, -0.07691590475339773, 0.06454460858889932, 0.11479877121931359, 0.025346659559822377, -0.06217470676619907, 0.08550598333485965, 0.031816157748761786, -0.00925743126933673, -0.03562774206402257, 0.10716009903437906, -0.13746807073259143, 0.12064541817375218, 0.1142433753240435, 0.05728441091222378, 0.13682865345302953, 0.025502859415279494, 0.057291717682572435, 0.013037805113861822, 0.10496272661114925, 0.07016959656923988, -0.004600074726591213, 0.07529204984644614, 0.11570829022632084, -0.14006915528338398, -0.072615609497164, 0.14808816313349865, -0.06341760945853514, -0.08076877564782449, 0.06411212783133927, -0.03534970529645688, 0.04215831958133667, 0.07832658348357244, -0.09622937641360174, 0.08750709046041438, -0.08663749999236137, 0.008037826655967195, 0.09516982240060784, 0.09969241113832356, 0.01603181876308432, 0.07213788242645644, 0.14787719841140157, -0.12251472974336991, -0.08900554117269538, 0.06814501809755075, 0.06420300472934626, -0.07965528529402259, -0.06054846896975018, -0.13936933355284087, -0.13061189704332601, -0.03983323563450414, -0.10589846581261572], [-0.08623531518541486, 0.06425413380206874, 0.003777238504379943, 0.021228766147111472, -0.08342162540956839, 0.10648545576949742, 0.07998608529970669, -0.05711812702373345, -0.12029023243372505, -0.006746051332359948, -0.13284982332670917, 0.12826750392297792, 0.13085244295473186, -0.10416675614729001, 0.022401977391458355, 0.1481549221435982, -0.0388791553387262, 0.08085349763334748, -0.05936444369932137, 0.07164547070509178, -0.05658289017934337, 0.10372237493767272, -0.06868402536495101, -0.10199930215081059, -0.04997783588400119, 0.12404170445316492, 0.003046778465163019, 0.14278056220358193, 0.013793907731642352, 0.07124049983048497, 0.1436848450722069, 0.011148691233430541, -0.054151257289395266, -0.008447987902987536, 0.10632214200557988, 0.13981297569999823, -0.008415427254727631, 0.018496356325265362, -0.02572847568280308, 0.10082575425728132, -0.035018814865199505, 0.10354750845805633, 0.04345539536362983, 0.10557496481821543, 0.12073110203090931, 0.1262289734073057, 0.1010654928636166, -0.048403911783549164, 0.0018393384842355642, -0.07839825947820367, -0.08186337473388809, -0.14799044573483758, -0.06037054524997448, 0.08499038195360265, 0.1455845897822659, -0.060335484345257484, 0.13597594135513463, 0.1009071289256587, 0.03393175507941121, 0.0626493184178312, -0.12586135985344493, 0.07289536188208745, 0.10024744273537461, 0.14064364898381043], [0.007200690669563525, 0.08576481849320555, -0.0022257766177065375, -0.022741653009494267, -0.12182115666195198, -0.0002545626109662913, -0.1200394323857259, 0.055889977315858125, 0.002620056652453101, 0.07910435210432207, 0.08298880089728336, 0.007174006065573418, -0.07136933553158847, 0.04525473783541037, -0.029550809656713653, 0.07487743305159789, -0.0508203658298781, -0.06958149809053983, 0.13743647159871047, -0.0761035333930759, -0.09832225961747264, 0.04574469083325722, -0.1373973188918839, -0.07150072575601711, -0.09915226704402968, -0.06070169546797555, -0.046400354866834706, 0.029074508092526624, -0.12492380862366409, -0.0715483326017398, 0.09826833814934915, 0.01751995564676337, 0.11657314459745133, 0.12658132295875646, -0.14377272726020968, -0.13753599087412288, 0.03357439431382567, -0.08069924956748266, 0.1097432563485452, -0.09667643456552133, -0.04962537456679511, 0.003306454574135198, 0.08777354492914691, -0.05746188018402358, 0.13200857099380925, -0.1342820911520165, 0.0666610053131792, -0.12844753768070438, 0.058514310921821994, 0.08942995103180457, -0.00474075492631576, 0.0732168569577826, 0.07143714278101115, 0.108235389173786, 0.04488675175051646, -0.13067491515784949, -0.10441659683058949, -0.14717968144136143, -0.005513175845525353, -0.04718205075835301, 0.13678205002301302, 0.1290308445962205, -0.11041363088843988, 0.09930261210231428], [0.09773251640474978, 0.13674158161133732, 0.0493604747947089, 0.07931827931796728, -0.14325973151339608, 0.13279968089143085, 0.09246843508144545, -0.01626698009376687, -0.1274391289389676, 0.055343099998464124, 0.09637269449364724, 0.020984113661240172, -0.06631204828588524, -0.09156692680586839, -0.09041917820276259, 0.14340370987483547, -0.007765581646547837, -0.05345641771047155, 0.014906466141781677, -0.10719932595547874, 0.08669578923770602, 0.04754070656252696, 0.014651153475147755, -0.09597407055145638, -0.04392486239761108, 0.08770944885776347, 0.12685435416159374, 0.029509151354761648, -0.03217614832926584, -0.08731391925624392, -0.01520998626499212, -0.14476146498088627, -0.050339827975863616, 0.06379821435643798, 0.026484515264846104, -0.11371845162085353, 0.14436028795337175, 0.13326388367971703, 0.09060366603358683, 0.03898603686140578, -0.05746559167978209, 0.09028545302459978, -0.09128071405832308, -0.1054581003996499, -0.1282347012701595, 0.08556903064693483, 0.049393028040813136, -0.05565144000691051, 0.08310800744998392, 0.11489039468265494, 0.04843415656909336, 0.06289158646631543, 0.060187191764088405, 0.12624529540841256, 0.11763602573092685, 0.09143407578113935, -0.11241833439877544, 0.14527435232339603, 0.14693278207658067, -0.12197195955396307, 0.022915690008111084, 0.14715432437164017, -0.06776090082387645, -0.07195860942293887], [-0.11366672765512398, -0.13662147524547796, -0.13394601429098188, -0.14665462988662153, -0.12635670906932298, -0.02986036923384834, -0.04987825690808052, -0.001851630487543221, 0.10605022058679442, -0.138970968343283, 0.04086998519437385, -0.14270431060976796, -0.10440937223553809, 0.1090469567878935, 0.051112099489615814, 0.01488771234197131, -0.055515210644144816, 0.10641905860840978, 0.12141842972379452, -0.0641608948153425, 0.03140836553372897, 0.11703648058309535, 0.08933770384273673, 0.11738050286229768, -0.08071436500605426, -0.013019218736640636, -0.0813053837021078, 0.14466416548840855, -0.0022954928665948338, 0.144945740625661, -0.0491512691931144, 0.08384075378953956, 0.05238495872413182, 0.1008640243703384, 0.10660419507184882, 0.11605218373986353, -0.06366843522650353, -0.04984507252827117, 0.1110204277594456, 0.05435599068944799, 0.07935371813492498, -0.11242573495014413, 0.044014226429899495, -0.04077889494080769, -0.0908391342562295, -0.033743392078410595, 0.14077186755836196, -0.040028349804822574, -0.017215444210193276, -0.10120384182887196, 0.0960770281816326, 0.019501129386960442, -0.14341280065121467, 0.1116375780772198, -0.054487257901545724, -0.03914255925186498, 0.026362049856588105, -0.05319469736003257, 0.05877404651889312, 0.13481421599892407, -0.017834948924619426, 0.06064686677113651, -0.10203192866760838, -0.010060252095528438], [-0.03741151418877163, 0.08114778015644508, -0.0843025455270129, 0.06471875222635373, -0.03944204025142632, -0.07850288028314599, 0.0100410710293653, 0.14709257602737336, 0.13802220969898926, 0.09304915016383106, 0.14247468823876064, -0.07515056847830204, -0.05704259397731935, 0.11497732045841536, -0.033662364396027655, -0.09678187466264401, -0.06636976621209888, 0.12814236781535976, -0.13043962077496596, -0.021981674982951588, -0.1021450539472639, 0.12573446963298696, -0.10845657705825373, 0.09939691174955378, 0.12543515923583987, -0.10204682986487701, 0.13203261169217695, 0.09371598418666119, 0.014957435853022588, -0.008840395294481523, 0.09231068568629852, -0.06679040334311126, -0.142674751802918, 0.050434600051479345, -0.012408617591442017, 0.0592421004937021, -0.08665119388461016, -0.1113786498144029, 0.05263415587170228, -0.005871607413888952, -0.004319525205729702, -0.0934431085689362, 0.024906517647965115, -0.006063468850756509, -0.13041066272081958, 0.06804017096955847, -0.11158434840208989, -0.04741411769058099, 0.13806080922553177, 0.058047908961601336, 0.13139139677753536, 0.07317064473126886, 0.05843766152846838, 0.010263667207872085, -0.04994511623169652, 0.034454556287513594, -0.03522648960998105, 0.0811741171935984, -0.1468637980595251, 0.004334117399953347, -0.09849071147396768, 0.0001427771455250748, -0.06466599704402107, -0.013395698421416219], [-0.10124687830415582, -0.12488051177998323, 0.05581822047086771, -0.12680234749296215, 0.1418551349024063, 0.06045011039910103, 0.13443577797580547, -0.1097954215192928, -0.005873573782893604, -0.0973891456713198, -0.07598500864979273, -0.12703518323078605, -0.09832616868556282, 0.1275271063122213, 0.0013679310983788218, -0.09102826979719959, -0.0011171754045300464, 0.014952643282484357, 0.04422642183308073, 0.08830851243670473, -0.007826962236072543, -0.13758843344351726, 0.06093250246218379, -0.012981531434801352, 0.06388766570339705, 0.022086088991203956, -0.0119640316304849, -0.052865224030430355, 0.10611482852393034, 0.1258455967523746, -0.030742174464417515, -0.14002997877546766, -0.14706592832690715, 0.049673235238684055, 0.0311826375600327, 0.1286162171756597, -0.1080533721772162, -0.09554567631363493, 0.060322411860522535, 0.0102220765174387, 0.14592499626415956, 0.04381790170581237, -0.0807551095530734, -0.09415177634306647, 0.09804003849989179, -0.14581356967452858, -0.004949141719180844, -0.027121559382639715, 0.0072557452001258405, -0.0831100930044413, 0.03665618898662526, -0.003853120086015932, 0.06671214070272002, -0.11029343370350994, 0.08776742881802616, 0.0959445291346018, -0.11651990041541757, 0.06583305014779603, 0.10365589544530657, 0.04316657498172838, 0.03754593818485852, 0.00558253420337268, 0.10326571921611333, -0.004160060377954411], [-0.08670743579656429, 0.07034171226941252, -0.030880398988444774, 0.02268342603963816, -0.05157373234939591, -0.13362952638236222, -0.12105661965042946, -0.059378292376343664, -0.022183462076405674, 0.1276297095947827, -0.07531662279356374, 0.05861569054308191, 0.142328018288766, 0.0008409387718081585, 0.055736795217186136, 0.04448347198378147, 0.1159952243749392, -0.13665583782703347, 0.12456604272749788, 0.028693809603959147, -0.043481910995998865, 0.103390628643027, -0.09179731264796573, 0.030816105527786825, -0.09798264361287329, -0.02702830716224562, 0.10128109153599624, 0.03085520599737987, 0.028675530594642368, 0.016704888220914788, 0.04643804977475349, 0.030860877128539188, -0.1474648699499071, -0.11258328473157048, 0.04351756711301455, 0.014195414382884797, -0.13770221606935557, -0.029315362129956363, -0.07008322081412167, -0.0929859780815475, -0.09019807429735746, 0.09581610586746431, -0.11707033229969525, 0.04064699835161084, -0.0048266563650312955, 0.10828263438338481, 0.03231781022564756, 0.0146643278323621, -0.06667982230174233, -0.09619720753212199, -0.05226422182460444, -0.11452257928558682, -0.027222655018456, -0.05657462689610418, 0.1389267141814851, 0.14655588352257748, 0.0915520914436864, 0.12227151915492718, -0.1478358327800423, 0.08590759122757932, -0.040204946305199635, -0.02700762358424648, 0.1440162622413499, 0.1219239873746425], [-0.12432889116032846, -0.11674783786496729, 0.13613079925214416, -0.08898327299454907, -0.1462399079928378, -0.11731995077829666, 0.13905627473583676, 0.113344707339119, 0.08667484090945199, -0.024692468863317538, -0.07234678703648639, -0.026492123089614877, -0.008035251739747173, -0.0430743927606493, 0.023729682089944026, -0.14694614463670438, -0.09831262427702275, -0.08127115864811342, -0.12669639663521579, -0.13932499012052413, -0.1449001658148859, 0.13769418486069468, -0.14020045650090912, -0.051281707701578014, 0.07705242020015271, 0.03397005484112747, 0.07206333635252934, 0.14771154036615075, -0.11763574381130862, -0.08402547628990399, -0.10654374009414312, 0.07105124784395067, -0.03154638625554278, -0.10373223789348826, -0.07244878342134004, -0.03421750195350408, 0.04837538283416962, -0.08538488964746227, 0.10551640127932754, 0.14189191444060922, -0.08908439850956405, -0.14662853509885496, 0.05949456805842995, -0.10006382103816225, -0.09655783003648855, -0.0397577915933052, 0.04364795828326554, -0.10131956535437445, 0.033319088472846925, -0.047013423644097455, -0.07668965767078709, -0.008688783737816952, 0.12332235843675393, 0.05606955990450513, 0.016525423855194482, -0.06468991268620557, 0.12102535206260923, 0.10675022719245436, 0.08895732438140008, 0.022552194781073898, 0.01755939784411331, 0.06123603703444161, 0.009104358475366836, -0.1257158480935794], [-0.11434052639053588, 0.07036365457546928, -0.07154039605096879, 0.012746732324943555, 0.07172295447633145, 0.020586137086138795, -0.053848229943688666, 0.09842837142893932, -0.025696386882674532, 0.1382930189047245, -0.08983734471108487, -0.08448492273280596, 0.14208620829508573, -0.01752112921897095, 0.08759156639428595, 0.046934657929320195, -0.12784745260575725, 0.1082268266370981, -0.03425473794037692, 0.01340812528961502, -0.12896228387414096, 0.005117498773839241, 0.03304918825359268, -0.02977363244784982, 0.0846105447737936, -0.07781463011941257, 0.05925784952654667, -0.09465707987696391, 0.12615263622253736, 0.1242847594583632, 0.13580087698624965, -0.12022930945141663, 0.09146519284543875, -0.013573196001634896, 0.140230330841076, -0.050943960947867906, 0.014389863289827498, -0.1361947793061533, -0.07340980567753427, 0.016494837206574575, -0.0759943533096079, 0.0737302408284087, -0.1440713555051037, -0.11380463203789537, 0.12749670263909413, -0.06424498136811732, 0.1419016553915768, 0.02197737692811369, -0.0989482494323709, 0.08073125924426089, 0.025304092217261098, -0.1219350500861199, 0.03727251869685258, 0.08560203813141237, 0.01920703796338477, -0.03369414714128463, -0.04855837426895997, 0.14462877292193915, 0.03880741406504171, 0.05120524216891231, -0.059521808175691235, 0.1477408718321358, 0.08540116133205902, -0.08783021450372924], [0.08647703290825326, -0.04078587079343786, 0.10994197171071823, -0.11219357650747386, -0.07838887673777709, -0.11406579770486465, -0.040622365860097084, 0.10697155390122487, -0.12690902667004222, 0.03123649947615431, 0.13328072558051818, 0.054267338218184136, -0.13800232855648836, -0.0277349022395222, -0.044171576968878065, 0.058920877594343835, 0.04659625504327025, 0.05794898061938894, -0.048797009847558845, -0.08899073383396505, -0.0647174687917114, -0.029946669815632695, -0.0064426781185954185, 0.11448218490687795, 0.10728775196829715, -0.10243310993883817, 0.13702305880966092, 0.027741917348728995, -0.036054312740607594, 0.05238005478868252, 0.03349344630316639, -0.02610330070354687, 0.0024378004561503575, 0.11705783431521632, -0.010591211288110025, -0.14175082997734018, 0.1305733331071423, 0.12426291858891453, 0.11178764191932267, 0.0022222129652598455, 0.09829146874734312, 0.12103029897345752, -0.025401987581749164, -0.04932279862280946, 0.021301064430221978, -0.0310763095358233, 0.002915675156060893, -0.03512182934568718, 0.14345652086826138, -0.04226538753351927, 0.11979163755197941, 0.13227090871553354, 0.0061819597084203926, -0.09359829049594995, -0.09710622119128098, 0.10578917077086647, -0.08215141762594405, -0.1136240724534307, 0.07354605568256753, -0.1116408554235873, 0.013249658345343446, -0.057720211998871035, 0.0776296901138405, 0.07069308665756815], [0.1419026075664619, -0.14397970160397322, -0.026106474650196776, 0.0020727580997067507, 0.10401165901854842, -0.11285292747796302, 0.05238984879193759, -0.034153067043585644, 0.14575572783773716, 0.027983237026381863, 0.13415087575232676, 0.138937276541499, -0.13567427905978696, 0.11888294519112397, -0.01713780342660054, 0.01503360226812403, 0.09022102343339003, 0.002577631532454522, -0.08709644205215532, -0.13142671129102343, 0.0013408953459239092, 0.005130803979843196, -0.03825490585817565, -0.06693427351343073, 0.007049078184486968, -0.12924166666726633, 0.06291105964917149, 0.04131026142487268, -0.13792461223121183, 0.08530337208097366, 0.06021797689120689, 0.07128794236046229, 0.12227406584549977, 0.1283299358010842, -0.04472742227229147, 0.05719074386727324, -0.07905294492528347, 0.015981710918158393, 0.07058622980175475, 0.02453925024709272, -0.015761600441986934, 0.08428284524886168, -0.053972398125647136, 0.0187416808739381, 0.08054735689180034, -0.0004764563204062988, 0.1343931385878675, 0.08735917458941267, -0.01866430051908277, 0.12912966539688125, 0.051448717239374525, 0.024384158334515738, -0.018910941476963566, 0.10473095343552274, 0.13552354187481108, 0.001755492643742862, -0.06523814668338283, 0.016853132558539707, 0.038613352639946724, -0.14384831323213332, -0.0778563541549122, 0.07359471016730143, -0.0823210296773383, 0.10099228713346226], [0.07945913954243608, -0.142642075827155, 0.1331339874767885, 0.13143659456223172, -0.02252702275180557, 0.010731357778996892, 0.002013220057437287, -0.054673462621548125, -0.04786591167294639, 0.041709355761449435, 0.06049751191139355, -0.10733012671981784, -0.10307231900229724, -0.001710110823576444, -0.0499455156167206, 0.12835544934852738, -0.10183463139852117, -0.0853604221006823, -0.14061028379183332, -0.023841701206925026, 0.032041040689048034, 0.0673424453493803, 0.12552719610430457, 0.006545032822101615, 0.10349069071163947, -0.12773705960292403, 0.12945512728589248, 0.14424294847015, 0.12269441481256638, 0.0671099842665221, -0.11362585681336702, 0.006999012478696137, 0.011877482264649936, -0.053800399123499626, -0.09613236896182359, -0.12676321630735393, -0.05858344877315223, 0.03126072042321762, -0.1290536013088693, 0.03266460905516372, 0.09571480092043774, -0.05712468021543654, 0.08305242171471819, -0.13185961481909794, 0.04751926629053019, -0.08075608495867581, -0.03111979867819724, 0.13056116126811257, 0.09530363022543065, 0.13952063647878088, -0.09953585404456544, -0.12482042094103976, -0.09363466763894567, 0.12259529212229697, 0.045887659344146625, -0.0815253353496602, 0.0019707431724622915, 0.060171893825402, 0.047033317545462555, -0.08335668250443065, -0.033887444270291375, 0.07023734416397143, -0.09586798549312989, 0.12965281358759484], [-0.11006485017640524, 0.0769253905488036, -0.12219843160588992, -0.01399065894185575, -0.09741456679664096, 0.01589784743375325, 0.06290804524063492, -0.050245497024497376, -0.01980937696855284, 0.07559889296021124, -0.09662026767414286, 0.003102097133660553, -0.13210125651420956, -0.12100896380861433, 0.12434574739793453, 0.11060026020740105, -0.0805240254116259, 0.10469505888166708, -0.056849699175808996, -0.11046591703273209, 0.045211931056811205, -0.012183056974724465, -0.1333437022193729, 0.03455778474952251, -0.057454142587937865, -0.13754912777918496, -0.04236910861903016, 0.0425368938838607, 0.11671474327840836, -0.05601508064387005, 0.12969977117694742, 0.10534830432741149, 0.033821836659351984, -0.14670975344931042, -0.13558768541923893, -0.07365854803634621, -0.0948684865745202, 0.058955002034887544, 0.06103775893903993, -0.12289999875631058, -0.05955003277286444, 0.12689889554723516, 0.13623532135546063, -0.1254733645128821, -0.13608625384596432, 0.05772645630129297, -0.13307193118496802, 0.10721556978929797, 0.03682876979462066, -0.1451832024051667, -0.074221373083849, -0.0001713359925516189, 0.05011885819579601, -0.12726192841303552, 0.0002451715685779787, -0.11915582809256424, -0.04374397146329061, -0.10982399688762916, -0.015384478315099037, 0.11511022880045924, 0.019851771063108897, 0.1378039335751151, -0.13474792704345795, 0.07709930108294608], [0.00568351054986832, -0.015157256901675104, -0.13048966954020624, 0.03246865788237216, -0.00772042585331989, 0.023301316000024025, 0.014857126785347646, -0.010805392676894121, 0.056520404962433074, -0.05905170919816105, -0.13173631389938464, -0.02611342065172899, 0.005061088147517295, -0.05647301825535775, -0.014036707289176664, -0.029113874536568607, 0.010071149877981356, 0.044072803248394965, 0.01651367055742678, 0.11383802150042327, -0.02759954506785431, 0.06345820331328231, -0.04772585418761095, -0.04851126540195755, 0.024721446426878707, -0.058850961124476214, -0.03457604434635965, -0.14466072232662042, 0.09547085707614059, 0.07994991798958884, 0.09295692815570836, 0.06218187030339348, -0.028496832967790528, 0.013856562964128766, 0.01863370747505705, -0.04677048675241399, -0.0850523684846075, -0.03357264327883909, 0.14576695300731124, -0.00036208989093117205, -0.10760858292577818, 0.010050318747698683, 0.034914217085192406, -0.04926799499071231, 0.0027813952578097934, -0.001597571617348137, -0.002351641811845828, -0.05982410620487899, -0.10533934013922344, 0.12636869156992497, 0.09167153433759342, 0.05213658831463672, 0.0564698755154035, -0.08581330480673086, -0.12766264407816602, -0.10399675246341285, -0.06595976883080312, -0.03977539189519805, -0.0032526927089716884, -0.07373077382356541, -0.10919220457479319, -0.024519957940229972, 0.08672708747888175, -0.013901177861958713], [-0.09880113584728106, 0.10613822299399561, -0.029926419680813304, 0.05448383064322218, 0.030363349538407414, -0.02623866273180797, -0.08006788797265631, -0.08690925569779356, 0.10606000904355667, -0.09695900362779551, 0.09673799586488596, 0.09017376608337935, 0.07502232858825456, -0.053124926769464134, 0.035033531761374526, -0.06444905250977534, -0.10792511970497276, 0.014777941604215056, -0.05595561215367567, 0.03794797595448052, -0.03483734747981143, -0.08523700722838534, 0.08577919560545358, -0.11685721374997547, -0.13789600699252758, -0.004506531206355552, -0.01842490422663931, -0.13740035783739163, -0.06858619903524528, -0.033919477348861124, 0.09484914458952065, -0.12070704897676951, -0.0014772189741918684, 0.07601924010476507, 0.07909080335338312, -0.1451492601112698, -0.12919969892386693, 0.05961040638771242, 0.054607805328915376, -0.007849908346687723, 0.049994828132148506, -0.016131906100688542, -0.016047411233129555, -0.0031757025071707246, 0.03573632056128004, 0.07286406933351197, 0.07175644781786142, -0.126013625929162, 0.03187422477150495, 0.05430617288307818, 0.06841993190877502, 0.09308388062212306, -0.01006166124087543, 0.10796060600330176, 0.08925478666861397, -0.11223473279011936, 0.022311002315916734, -0.09248644198671335, -0.054836540243591456, -0.04472064237077522, 0.07533618926922189, 0.1462513138392908, 0.07121660203164257, -0.036573712789298246], [-0.06444038685826411, -0.033254838367831926, 0.0640567150448898, -0.021730975649027207, -0.09264478407140359, 0.07741315208482918, -0.04951956352022978, -0.14618682314804596, 0.09618510696812752, 0.10796698143162953, 0.11438689215117509, -0.05396215843889232, 0.12870088221405496, 0.14500115628215726, 0.10643375122557314, -0.11378734788907324, 0.052358314665259725, 0.051498843449966025, -0.035695939174201136, 0.09256034259784612, 0.10212550032304568, -0.11875276851006925, 0.0791619305801379, -0.12504218390027633, 0.07553209398425706, -0.04576650603730417, -0.006770491927245437, 0.12322006340412256, -0.14252436342257405, -0.0003811480311064763, 0.11947384069308953, -0.12830154226467827, -0.05005080025503815, 0.09687254839014342, -0.025016331697252106, 0.03078545641111874, 0.12009255400222091, -0.06678898161049128, 0.10365367990593483, -0.011064240208437742, -0.039955582118440275, -0.1386469038787228, -0.1128415053182559, -0.12117637006536391, 0.027909876952528417, -0.045898126303861614, -0.1059935360663541, -0.005500852298648912, -0.0019691856169896937, -0.013065791328415455, -0.11922171572540179, 0.1346470127433197, 0.046322863687848104, 0.0033003448834790228, 0.09693076442458168, 0.05318778441184602, 0.0585435939019944, 0.0021246924850329696, 0.013043496029520013, 0.13754160239667595, -0.014856189473058945, 0.06200253999205663, -0.1020509632588231, 0.12047727888043835], [-0.07404934838767648, 0.03171857883098367, -0.07145599067660525, 0.016004184647488234, 0.12178710200658505, 0.06241958251723373, 0.04491084850243704, -0.10588182292556922, 0.11475939303033295, -0.1393251119011753, 0.0890353308445066, -0.01285102837546534, -0.028496500933962, 0.06574139017187805, 0.01947203527887864, 0.06121999216530666, -0.07326368336761524, 0.08202362855139703, 0.0369932221783347, -0.027594851395319683, -0.1305260096197806, -0.1023675911581674, -0.10685247481487055, -0.0045603565435125, 0.056742772979437944, -0.13647681248835372, -0.031182471808417864, -0.11373167305057896, 0.04610082525874751, 0.13014701992782263, 0.0010271438006670408, 0.07748011003360158, 0.07263426617780744, -0.03756968500650128, 0.13836468010706954, -0.08015171324327128, -0.09821621447254068, -0.1188320567985261, -0.05554814304877509, 0.016352904419000086, 0.037011175870650254, -0.09385977182537011, 0.06594670714754033, 0.0930939559971658, -0.08009494798500265, 0.06703051060575604, 0.0038577874342515805, -0.07346748872636732, 0.11120883647774832, 0.08475932207431613, 0.02375436699938538, 0.10215868770376602, -0.019554641707581533, 0.10318826802081582, -0.08890390045012272, 0.05272464084114101, -0.14730797798833603, 0.11713526915204608, -0.07383351620748052, 0.0175087827958261, 0.08493417891628352, -0.1406534920254067, -0.10426747999165785, -0.02200273102342798], [0.057886353677517766, 0.13922015400749987, 0.07990593416979422, -0.05277493996829978, -0.09438796814608322, 0.09895814105048875, -0.08746027745673846, 0.06562082815535486, -0.03209588890520712, -0.046337963358844464, -0.1395275630586466, -0.14249986137275425, -0.13411069415243312, 0.005077897289696542, -0.13384207728132927, -0.11491015345170633, 0.03619462129516543, -0.11163437039876607, 0.11867811681375956, -0.02370024924794277, -0.12181611434260917, -0.09754088868992408, 0.11210416734132661, -0.12454941453337459, -0.14230733244262508, -0.07095172597594727, 0.042285000243250936, -0.12599863503243974, 0.11141903163736483, -0.13649405217007254, 0.10422762232176902, 0.06503813394508401, -0.11097622633402174, -0.07924820430636664, 0.07633509800955829, -0.09142415098479134, -0.0008752701978422261, -0.12175498305346219, -0.11679251377794873, 0.09825007526027868, -0.1362360182548979, -0.07691798429800159, -0.01613267149479672, -0.05589413073837447, 0.05180130487258286, 0.043612263689725844, -0.14212844931503663, -0.13377619952303418, 0.05812897334809408, -0.07618692193864698, -0.03468313370101646, -0.08267070923587604, 0.14222095943939916, -0.0014478663941441816, -0.1355428265548131, -0.12428683382411129, 0.024295007196759616, -0.055287783468535565, 0.05871314487911117, 0.142905920280404, -0.14047439353766533, 0.03216992309009406, -0.07255604093978058, -0.04820626400240109], [-0.11189869778708786, -0.01568437648933657, 0.13813936877771116, 0.07234631280478435, -0.10967038494652505, -0.06139579641005345, 0.0012606321467232007, -0.07197325976665381, -0.032974901497817455, 0.13160700871703102, 0.12758764684938356, -0.03699815217371735, 0.009151740138358844, 0.033311539597026346, 0.0701341150596328, -0.027879929852668406, -0.10828489235779229, -0.12726725629201915, 0.07943705384941888, 0.021392149021321943, 0.1115780846572611, 0.06246826920843723, 0.002446403733546626, -0.003969307382859, -0.11882380978108091, -0.042153516285967155, -0.13238377186331662, -0.03715554385530204, -0.0016065256881963585, 0.05828901079448531, 0.05347877612326976, -0.0053168758500011515, -0.13285850492487045, 0.029513743707748036, -0.0913074353869196, -0.0026872561162676056, -0.10451210991498355, -0.14514741594379663, 0.12253129996866169, 0.015194590135953867, 0.12160840159842767, -0.01719553849238553, -0.12030621515200413, -4.582667525526718e-05, 0.03774756577686575, -0.04833436746008915, 0.01860815115238451, 0.14182702505258632, -0.031977908486956, -0.05375428302936422, -0.06338343243024086, 0.13635480282126083, -0.04517896741428694, -0.11988725054186247, 0.07341705481837901, 0.13735779718939123, -0.0210476559950854, -0.08958785748308634, 0.0690860125200855, -0.12509717211058188, -0.0455357811184957, -0.029269755672161044, -0.027519982240833574, -0.12141291973492285], [-0.059981411168231, 0.03766004931969444, -0.01543143389195445, 0.04305603384590939, 0.14031895103897818, 0.028055062592108132, -0.001836855659304748, 0.1433967172032689, -0.10653860737109141, 0.03961374322930755, -0.08277854374364904, 0.015041068164720978, 0.1122158448951655, 0.04761774975195185, 0.04034580470598245, -0.05984648447238654, -0.1445335924428894, -0.1108760060931369, 0.09226648021313524, -0.0848096675116343, 0.0074117602629796275, 0.0738372214459872, -0.0223251904748282, -0.06634501977089884, -0.009831496033828074, 0.13759113667218537, -0.07426804863929092, -0.03020610939516981, 0.023085534426011578, 0.07768914269172958, -0.031884713410264054, 0.0943460872073833, 0.1411398194052082, 0.1379319388808375, -0.06446047655753999, 0.004131028328592301, 0.011669934798840625, 0.049544866443758856, -0.04504253294215467, -0.038695846424844194, 0.0467350682943134, 0.0515488924884171, 0.060050979707896024, 0.12555248759749899, 0.09095583919048805, -0.04358762807126215, 0.02295671922659062, -0.017257327840826425, 0.04810548100083148, -0.11998137820912579, 0.044111335250573924, -0.0679373978769625, 0.06422243374169759, -0.1093757766986572, -0.06400000395729173, 0.07631264197192181, -0.022389762754113862, -0.1388914073287785, 0.08358991867965268, -0.012230408884118, 0.08184544661504356, 0.09204979621711604, 0.09737596072093943, 0.11558945595017839], [0.06793289224721166, 0.06691962236763802, 0.05609476948216524, 0.0024657824352456725, 0.057731883258203914, -0.12326525956292458, -0.09924735141120497, -0.10741834255733029, 0.12027643429064494, 0.11682655703928935, -0.09956001768379916, -0.026379608264618104, 0.1472282772665472, -0.010919249153620053, 0.036217138053823955, 0.1309887599549538, 0.1477215229107119, 0.12542522033366915, -0.08568678423101021, 0.03591274587389584, -0.05212072335637842, -0.019245075200733847, -0.06359341738190775, -0.12292966612219738, -0.13191959727765853, -0.092926153202505, -0.1084569418043361, -0.035044095203799225, 0.006023354543329279, 0.09350919518999445, 0.03691687688061593, 0.06530726218822544, 0.11488724109214105, 0.04862675663985594, 0.033486913655770945, 0.1401414121001896, -0.015744589510555823, -0.1172842959957138, -0.12184856303360489, -0.015122516207239783, 0.002974416060819246, -0.11137507367881622, 0.03963848554873853, 0.04412085395196472, 0.13936887010936555, -0.021076525617483494, -0.13506961787232774, 0.07892297390941425, -0.0014979952190209977, -0.11883134215189459, -0.06537021625997262, 0.11153629689973371, 0.1393618857648663, 0.0892338563873325, -0.0498144250240969, 0.08091263603418952, -0.14143254579971343, -0.10729257311785431, -0.0034984761740332326, 0.11909120648994415, -0.11367273363378301, 0.1027328060508651, 0.02520517944977077, 0.044015012658538216], [-0.028644735869298527, 0.03685826190968666, 0.04659737281761109, -0.0011596576668062575, -0.05158074853233213, 0.14309444925946613, -0.1394210895434236, 0.0914867171434115, 0.12664997782938747, 0.052546057454854606, 0.0632936492920636, -0.01755455676070622, 0.08532727712053273, 0.11738130557937626, 0.1289381028192888, 0.1361581635330869, 0.10024161211511914, 0.0218366852367102, 0.12271982230551304, 0.058034392734007956, 0.12160774424138815, 0.0754866666533209, 0.1295378114374558, 0.04207414988292155, -0.008718157407615001, 0.10607527693833307, 0.11987093113095165, -0.07209465248617407, -0.12438538602522746, 0.07319073279074678, -0.09600299887470629, 0.08057649076486645, -0.09161092794444622, -0.11614092698257905, -0.084540221394126, -0.10826853344824627, 0.06343703352450292, 0.1252588170033479, 0.0350723192465896, -0.021443028702867406, -0.08274525762043797, -0.0414243101867898, -0.05457984203850513, 0.024568455059447797, -0.13776872896950051, -0.09234278467755577, -0.11737109569084751, 0.06997971278331122, -0.03481555657708686, -0.03289215456116469, 0.06398937218901396, 0.10098390625670117, 0.06747682928994655, -0.11383457898121463, -0.07269578298409475, 0.057663588955266576, 0.10039005095589898, 0.14674595696283582, 0.0837816316681105, -0.14450596815397182, -0.011720195053709387, -0.04254923265692055, 0.017569138256748357, -0.003182560606986129], [-0.06397447375650561, 0.08129628339492703, -0.03631106631768556, -0.09031078856233495, -0.021976405996303905, -0.058055046822978865, 0.06176584135672483, -0.08534784587557864, 0.009364554946092424, 0.003755592600835217, -0.028256962522245174, 0.030865756369109876, 0.03584183053947279, 0.0411849533401511, 0.04975255342280335, -0.05448314543373177, 0.07246523194714893, -0.13447892682731727, -0.11255270809230297, -0.04284213254298458, -0.018869469256054733, -0.13912802406887928, 0.0834406106493806, -0.10552862679501224, 0.038498268055899454, -0.003193088158316426, -0.004759807545462624, 0.12305123409922647, 0.1096358646552702, 0.10699123182814113, 0.13821195176871298, -0.0022900636549543496, 0.029701216083994203, 0.0014317255886314717, 0.03130418394584575, 0.12559243104254159, -0.033536971363343465, 0.11485910694843032, -0.1303606997767994, 0.040932204316247306, -0.1108234471031125, -0.14707641148078635, -0.03311336433886039, -0.12212413378065642, -0.08698567925752149, 0.0240199016536638, -0.033289398297378675, 0.03410845146526262, -0.10141685618466278, 0.053158744527612045, -0.11834796264344627, 0.1366991068907692, -0.12807494807482012, -0.10806645162747418, -0.14754757559522785, -0.023849985035246893, -0.14450948673771707, 0.08554444740385034, 0.13034138470349454, 0.07577728632741243, 0.023190918084259576, -0.03957205199812085, -0.10425245923312348, -0.049025326394673], [0.054378491285090896, -0.13114274239140003, -0.030241844442872978, -0.0883722786801332, 0.01718288895557546, -0.08242507875603039, 0.04749544481207188, -0.03329436662130428, -0.013198349649260727, 0.12024554942806753, 0.04039806103387045, -0.08845425849579613, 0.1309641555335227, 0.09307210730780743, -0.012250190411955936, 0.0058380310392405765, 0.09817533652733748, 0.143506702783194, 0.04439932931900492, 0.017325465401062556, -0.10811564933098952, -0.010082632176421802, 0.047192920670554084, -0.07808768725414116, 0.09035829595285569, 0.14287100292150795, 0.07604018566333637, -0.08447249804236218, -0.07613423791179963, 0.10418442615408707, 0.019216485149613327, -0.10084524819078272, 0.08850180839380409, -0.13113433920998466, 0.0985912051566718, 0.14519254261510073, -0.0033929903595286692, 0.09529635750897178, 0.07344210471573467, -0.012659418551879908, -0.02646452685266483, 0.13148657787229934, 0.01473498012339483, -0.13645040499053454, 0.08858973582922072, 0.13081183893002685, -0.08335425943148404, -0.023982962487104145, 0.12253488292071962, -0.11369557900591577, 0.14185203803969504, 0.11393313437119895, 0.12403421611869958, 0.04912762513042132, 0.024205012331700276, 0.029730846793971144, 0.00912938777975747, -0.13076015705384111, 0.08251371980298627, 0.1293776533243453, -0.14264489259184923, -0.12813306237220534, -0.027476048424843844, -0.04013331827723056], [0.13274332736936312, -0.022173710303697247, 0.06931542228838031, -0.03223713196108585, 0.09168441474901687, 0.09436753253410746, 0.039579871423597174, 0.12921727744514067, -0.010328730308895945, 0.09896571490481815, -0.09872320978198948, -0.08600322614402797, 0.023237815423435337, -0.079863251430956, -0.06234512671087958, 0.11781023333169766, 0.004134004303701311, 0.02214531748416962, 0.027668112291838798, -0.019602983429891585, 0.029629072735639694, -0.09678509407403396, -0.035243721630370844, -0.11080595489089437, -0.07634231850833817, -0.05019683333554578, -0.13409383507474146, -0.07992763698067196, -0.0774751737885309, 0.051000952184216214, 0.01933089524288431, -0.10182937880591411, 0.09511430381007777, -0.02797181912847077, 0.057240874980740764, 0.014536087664008601, -0.05438975621260757, -0.1311947255802058, 0.10271894528393727, -0.044279048010060995, -0.04358773986080523, -0.02729835609269557, -0.020881601810756684, -0.047484106528781087, 0.07886320902490401, 0.10691304091236536, 0.1023417798978159, -0.09655467682320208, 0.09056895911038956, -0.05830511689999554, 0.0803071490938875, 0.12162030790791178, -0.004587133629505996, 0.1466411505142594, 0.03463231328836569, -0.10405463635120077, -0.024680693347899962, 0.02179008348026143, -0.0708418716343115, 0.06349371365266285, -0.003160086439209675, 0.07628567634807742, -0.05105116811877519, 0.08169326071900246], [0.07021666654400208, -0.09684907190030823, -0.04295698852759537, -0.10138974609372217, 0.0899024376903457, 0.13176375486628178, 0.09585886629283866, -0.09396425297448105, 0.05431087804841114, 0.13045440071456743, -0.06006672220853762, -0.09025942301476658, 0.09869892257704302, -0.034801485655941974, 0.1477114662608932, 0.07152045352362618, 0.035997166492636457, -0.08482908270790664, -0.05614332428863804, 0.12751920169973918, -0.09351796207165768, -0.07187129948451465, -0.10261465487846558, 0.06281661538467315, -0.003480091714772343, 0.1227977981583181, 0.05075088415824988, -0.07519494298493469, -0.13192227903472492, -0.014639178764162264, 0.030080103555739673, -0.03507491734854572, 0.0069729760972624955, -0.12296068819063188, 0.055927999887305846, 0.08051820165828882, 0.05915775308166685, 0.024813255403792644, -0.03774704933037078, -0.03541987520847664, -0.041464030474859, 0.02093882075447326, 0.006479265738889711, 0.04226419735055048, -0.10408090652118318, -0.13598663679146145, -0.1313207259140422, 0.13657740433117327, -0.13135549347774714, -0.01960617396252637, -0.13186774243694813, -0.06160199871113459, 0.04521452452023708, 0.13025095392889519, 0.06987356319378346, -0.07914549767078981, -0.04043585179856449, -0.003159712071798909, 0.06937464862336601, 0.11055181363460703, -0.10284766233036599, -0.07346960473619665, 0.04307613693426418, -0.059624192389461025], [-0.06692183964011962, -0.06893082877652032, 0.05894438282109282, 0.0206818389547771, -0.14578043439215366, -0.013986124392803528, -0.14022811293475473, 0.07855609618472392, 0.11876224719519374, 0.042843479237690774, -0.06635310496806532, -0.1287838570452005, -0.1411954949660897, 0.14330965093479364, 0.045085027228180585, 0.1394247919120286, 0.02367427783394524, -0.10141848131301576, -0.0832308240373501, 0.11068607378607725, -0.12846775632875262, -0.13105094754940239, 0.026120679443723094, 0.0670299037360789, -0.13412891989746262, -0.043028130605157755, 0.029010178472260256, 0.13002550572877586, -0.10759712837354701, 0.10359700526944166, -0.12403373723249667, -0.0961007251418104, 0.09260989902728012, 0.09406956132253688, -0.12420199206872037, 0.09827121853560342, -0.0694071494632415, -0.05799337155075732, 0.10138770808153677, -0.13845133736548912, 0.04515706450122378, 0.051712379747441944, 0.05675282554207822, 0.11362392762918788, 0.10559973897590302, 0.060769317272562906, -0.08707007589029443, -0.0957030096152319, -0.14358375202887216, 0.1411265323600338, -0.07419730490022818, -0.008354668603598875, -0.12224974460802479, -0.039126619490742975, -0.08532914797289361, -0.13778862860606697, -0.07173795188265562, -0.119070156756832, -0.03120933481917544, -0.07401804131065139, 0.026413909965165794, 0.05399959572819993, 0.013626748639782887, 0.05490507370552905], [-0.02419598463777052, -0.10334813666199819, 0.07366594035580043, -0.04123369013418239, 